<?xml version="1.0"?>
<opencv_storage>
<cascade>
  <stageType>BOOST</stageType>
  <featureType>HAAR</featureType>
  <height>24</height>
  <width>24</width>
  <stageParams>
    <boostType>GAB</boostType>
    <minHitRate>9.9500000476837158e-01</minHitRate>
    <maxFalseAlarm>3.0000001192092896e-01</maxFalseAlarm>
    <weightTrimRate>9.4999999999999996e-01</weightTrimRate>
    <maxDepth>1</maxDepth>
    <maxWeakCount>100</maxWeakCount></stageParams>
  <featureParams>
    <maxCatCount>0</maxCatCount>
    <featSize>1</featSize>
    <mode>BASIC</mode></featureParams>
  <stageNum>12</stageNum>
  <stages>
    <!-- stage 0 -->
    <_>
      <maxWeakCount>7</maxWeakCount>
      <stageThreshold>-3.9981436729431152e-01</stageThreshold>
      <weakClassifiers>
        <_>
          <internalNodes>
            0 -1 120 -3.0877305107424036e-05</internalNodes>
          <leafValues>
            5.6398105621337891e-01 -6.2962961196899414e-01</leafValues></_>
        <_>
          <internalNodes>
            0 -1 107 -3.3403335692128167e-05</internalNodes>
          <leafValues>
            4.8952156305313110e-01 -6.1838465929031372e-01</leafValues></_>
        <_>
          <internalNodes>
            0 -1 69 -2.7090227603912354e-01</internalNodes>
          <leafValues>
            -2.8423413634300232e-01 9.4091099500656128e-01</leafValues></_>
        <_>
          <internalNodes>
            0 -1 59 1.4889813959598541e-01</internalNodes>
          <leafValues>
            2.9333287477493286e-01 -9.8101377487182617e-01</leafValues></_>
        <_>
          <internalNodes>
            0 -1 53 1.3422048650681973e-02</internalNodes>
          <leafValues>
            -3.3267846703529358e-01 7.5257796049118042e-01</leafValues></_>
        <_>
          <internalNodes>
            0 -1 17 -3.9496868848800659e-02</internalNodes>
          <leafValues>
            8.4606766700744629e-01 -2.9288706183433533e-01</leafValues></_>
        <_>
          <internalNodes>
            0 -1 15 -7.9241301864385605e-03</internalNodes>
          <leafValues>
            -6.8623709678649902e-01 3.7941029667854309e-01</leafValues></_></weakClassifiers></_>
    <!-- stage 1 -->
    <_>
      <maxWeakCount>10</maxWeakCount>
      <stageThreshold>-7.3332399129867554e-01</stageThreshold>
      <weakClassifiers>
        <_>
          <internalNodes>
            0 -1 87 -1.2806975841522217e-01</internalNodes>
          <leafValues>
            -6.0946744680404663e-01 4.4588744640350342e-01</leafValues></_>
        <_>
          <internalNodes>
            0 -1 129 -3.4337419492658228e-05</internalNodes>
          <leafValues>
            5.0759625434875488e-01 -4.6579712629318237e-01</leafValues></_>
        <_>
          <internalNodes>
            0 -1 102 1.1346005834639072e-02</internalNodes>
          <leafValues>
            -3.1889602541923523e-01 6.3219261169433594e-01</leafValues></_>
        <_>
          <internalNodes>
            0 -1 153 -4.5154849067330360e-04</internalNodes>
          <leafValues>
            -6.1536151170730591e-01 3.1068971753120422e-01</leafValues></_>
        <_>
          <internalNodes>
            0 -1 137 7.7679948881268501e-03</internalNodes>
          <leafValues>
            -2.8961884975433350e-01 7.0752465724945068e-01</leafValues></_>
        <_>
          <internalNodes>
            0 -1 16 -3.3657647669315338e-02</internalNodes>
          <leafValues>
            7.9289203882217407e-01 -2.1746435761451721e-01</leafValues></_>
        <_>
          <internalNodes>
            0 -1 152 1.5958270523697138e-04</internalNodes>
          <leafValues>
            3.6018180847167969e-01 -5.9249907732009888e-01</leafValues></_>
        <_>
          <internalNodes>
            0 -1 98 -1.2520398944616318e-02</internalNodes>
          <leafValues>
            5.1747983694076538e-01 -4.5156624913215637e-01</leafValues></_>
        <_>
          <internalNodes>
            0 -1 144 3.8919251412153244e-02</internalNodes>
          <leafValues>
            -2.9902994632720947e-01 7.0681452751159668e-01</leafValues></_>
        <_>
          <internalNodes>
            0 -1 12 -4.2546354234218597e-03</internalNodes>
          <leafValues>
            -8.4523797035217285e-01 2.5050094723701477e-01</leafValues></_></weakClassifiers></_>
    <!-- stage 2 -->
    <_>
      <maxWeakCount>10</maxWeakCount>
      <stageThreshold>-6.9036203622817993e-01</stageThreshold>
      <weakClassifiers>
        <_>
          <internalNodes>
            0 -1 119 -3.2634015951771289e-05</internalNodes>
          <leafValues>
            4.5217391848564148e-01 -6.1176472902297974e-01</leafValues></_>
        <_>
          <internalNodes>
            0 -1 42 2.4546135216951370e-02</internalNodes>
          <leafValues>
            -5.4930651187896729e-01 3.4623032808303833e-01</leafValues></_>
        <_>
          <internalNodes>
            0 -1 48 -4.9237430095672607e-02</internalNodes>
          <leafValues>
            -7.9520583152770996e-01 2.6467829942703247e-01</leafValues></_>
        <_>
          <internalNodes>
            0 -1 95 1.7427992075681686e-02</internalNodes>
          <leafValues>
            -3.2299759984016418e-01 6.5880328416824341e-01</leafValues></_>
        <_>
          <internalNodes>
            0 -1 55 9.6509680151939392e-02</internalNodes>
          <leafValues>
            -2.8116589784622192e-01 6.9579923152923584e-01</leafValues></_>
        <_>
          <internalNodes>
            0 -1 45 9.7837120294570923e-02</internalNodes>
          <leafValues>
            -1.4206653833389282e-01 8.0358505249023438e-01</leafValues></_>
        <_>
          <internalNodes>
            0 -1 93 -3.6186899524182081e-04</internalNodes>
          <leafValues>
            -5.8588975667953491e-01 3.1910541653633118e-01</leafValues></_>
        <_>
          <internalNodes>
            0 -1 75 3.8657635450363159e-02</internalNodes>
          <leafValues>
            -1.9450268149375916e-01 9.0205889940261841e-01</leafValues></_>
        <_>
          <internalNodes>
            0 -1 103 -2.1868973271921277e-04</internalNodes>
          <leafValues>
            5.2596563100814819e-01 -3.1076949834823608e-01</leafValues></_>
        <_>
          <internalNodes>
            0 -1 18 -1.4990766067057848e-03</internalNodes>
          <leafValues>
            -5.4208493232727051e-01 2.8515344858169556e-01</leafValues></_></weakClassifiers></_>
    <!-- stage 3 -->
    <_>
      <maxWeakCount>10</maxWeakCount>
      <stageThreshold>-7.6377570629119873e-01</stageThreshold>
      <weakClassifiers>
        <_>
          <internalNodes>
            0 -1 117 -7.8012439189478755e-05</internalNodes>
          <leafValues>
            4.4117647409439087e-01 -4.5918366312980652e-01</leafValues></_>
        <_>
          <internalNodes>
            0 -1 40 6.0146763920783997e-02</internalNodes>
          <leafValues>
            -4.2264539003372192e-01 3.6274868249893188e-01</leafValues></_>
        <_>
          <internalNodes>
            0 -1 50 -9.1252848505973816e-03</internalNodes>
          <leafValues>
            -7.7271312475204468e-01 2.1650542318820953e-01</leafValues></_>
        <_>
          <internalNodes>
            0 -1 157 -1.8710893345996737e-04</internalNodes>
          <leafValues>
            -5.0160437822341919e-01 3.1369134783744812e-01</leafValues></_>
        <_>
          <internalNodes>
            0 -1 1 -5.7335621677339077e-03</internalNodes>
          <leafValues>
            -6.0600936412811279e-01 2.5670948624610901e-01</leafValues></_>
        <_>
          <internalNodes>
            0 -1 136 -3.1151078292168677e-04</internalNodes>
          <leafValues>
            4.9832245707511902e-01 -3.5968202352523804e-01</leafValues></_>
        <_>
          <internalNodes>
            0 -1 30 -5.5623205844312906e-04</internalNodes>
          <leafValues>
            -8.3661055564880371e-01 1.9646418094635010e-01</leafValues></_>
        <_>
          <internalNodes>
            0 -1 31 8.8009837782010436e-04</internalNodes>
          <leafValues>
            1.8392227590084076e-01 -7.0299047231674194e-01</leafValues></_>
        <_>
          <internalNodes>
            0 -1 124 -5.2706222049891949e-04</internalNodes>
          <leafValues>
            4.5223784446716309e-01 -3.5851234197616577e-01</leafValues></_>
        <_>
          <internalNodes>
            0 -1 61 1.9265603274106979e-02</internalNodes>
          <leafValues>
            -2.9252368211746216e-01 5.7853561639785767e-01</leafValues></_></weakClassifiers></_>
    <!-- stage 4 -->
    <_>
      <maxWeakCount>12</maxWeakCount>
      <stageThreshold>-5.8044236898422241e-01</stageThreshold>
      <weakClassifiers>
        <_>
          <internalNodes>
            0 -1 99 -7.5401942012831569e-05</internalNodes>
          <leafValues>
            3.0120483040809631e-01 -4.9668875336647034e-01</leafValues></_>
        <_>
          <internalNodes>
            0 -1 128 -5.5673412134638056e-05</internalNodes>
          <leafValues>
            3.9495968818664551e-01 -3.4018579125404358e-01</leafValues></_>
        <_>
          <internalNodes>
            0 -1 28 5.1981817930936813e-02</internalNodes>
          <leafValues>
            -2.5755420327186584e-01 4.5800870656967163e-01</leafValues></_>
        <_>
          <internalNodes>
            0 -1 115 -4.3418072164058685e-03</internalNodes>
          <leafValues>
            5.1235520839691162e-01 -2.5538891553878784e-01</leafValues></_>
        <_>
          <internalNodes>
            0 -1 155 -1.3268993643578142e-04</internalNodes>
          <leafValues>
            -6.1786347627639771e-01 2.4695113301277161e-01</leafValues></_>
        <_>
          <internalNodes>
            0 -1 139 -9.5676863566040993e-05</internalNodes>
          <leafValues>
            5.1603019237518311e-01 -2.5049960613250732e-01</leafValues></_>
        <_>
          <internalNodes>
            0 -1 34 -1.4010546146892011e-04</internalNodes>
          <leafValues>
            -6.2069219350814819e-01 2.1694862842559814e-01</leafValues></_>
        <_>
          <internalNodes>
            0 -1 88 -1.0909263801295310e-04</internalNodes>
          <leafValues>
            4.2885461449623108e-01 -3.6244449019432068e-01</leafValues></_>
        <_>
          <internalNodes>
            0 -1 51 -2.9427740722894669e-02</internalNodes>
          <leafValues>
            -7.7270734310150146e-01 1.8753877282142639e-01</leafValues></_>
        <_>
          <internalNodes>
            0 -1 74 -3.5489626228809357e-02</internalNodes>
          <leafValues>
            7.9409712553024292e-01 -2.3642483353614807e-01</leafValues></_>
        <_>
          <internalNodes>
            0 -1 77 -2.0716202259063721e-01</internalNodes>
          <leafValues>
            -6.1626732349395752e-01 2.8885495662689209e-01</leafValues></_>
        <_>
          <internalNodes>
            0 -1 146 4.2782357922988012e-05</internalNodes>
          <leafValues>
            2.0631106197834015e-01 -6.0990512371063232e-01</leafValues></_></weakClassifiers></_>
    <!-- stage 5 -->
    <_>
      <maxWeakCount>16</maxWeakCount>
      <stageThreshold>-7.3427015542984009e-01</stageThreshold>
      <weakClassifiers>
        <_>
          <internalNodes>
            0 -1 64 8.0321386456489563e-02</internalNodes>
          <leafValues>
            -2.6562500000000000e-01 4.7222220897674561e-01</leafValues></_>
        <_>
          <internalNodes>
            0 -1 2 -2.8392121195793152e-02</internalNodes>
          <leafValues>
            4.7575736045837402e-01 -2.7607193589210510e-01</leafValues></_>
        <_>
          <internalNodes>
            0 -1 24 -5.1925312727689743e-03</internalNodes>
          <leafValues>
            -6.1194890737533569e-01 1.9997522234916687e-01</leafValues></_>
        <_>
          <internalNodes>
            0 -1 68 8.0384694039821625e-02</internalNodes>
          <leafValues>
            1.8135562539100647e-01 -7.7185249328613281e-01</leafValues></_>
        <_>
          <internalNodes>
            0 -1 132 -2.7751392917707562e-04</internalNodes>
          <leafValues>
            1.8840247392654419e-01 -5.2865558862686157e-01</leafValues></_>
        <_>
          <internalNodes>
            0 -1 0 2.3439500364474952e-04</internalNodes>
          <leafValues>
            2.3516128957271576e-01 -5.9748762845993042e-01</leafValues></_>
        <_>
          <internalNodes>
            0 -1 116 -6.5088714472949505e-04</internalNodes>
          <leafValues>
            4.8549237847328186e-01 -3.0092144012451172e-01</leafValues></_>
        <_>
          <internalNodes>
            0 -1 56 -2.6859310455620289e-03</internalNodes>
          <leafValues>
            7.2438931465148926e-01 -1.5432319045066833e-01</leafValues></_>
        <_>
          <internalNodes>
            0 -1 21 1.1421421542763710e-02</internalNodes>
          <leafValues>
            -1.9591166079044342e-01 6.5377068519592285e-01</leafValues></_>
        <_>
          <internalNodes>
            0 -1 13 1.9861612468957901e-02</internalNodes>
          <leafValues>
            -2.8594404458999634e-01 5.2109193801879883e-01</leafValues></_>
        <_>
          <internalNodes>
            0 -1 54 3.9394650608301163e-02</internalNodes>
          <leafValues>
            -2.2524486482143402e-01 7.3216146230697632e-01</leafValues></_>
        <_>
          <internalNodes>
            0 -1 142 2.9481487581506371e-04</internalNodes>
          <leafValues>
            2.8309389948844910e-01 -5.3832739591598511e-01</leafValues></_>
        <_>
          <internalNodes>
            0 -1 127 4.3404214084148407e-03</internalNodes>
          <leafValues>
            1.2082628160715103e-01 -7.5079983472824097e-01</leafValues></_>
        <_>
          <internalNodes>
            0 -1 6 -6.1629754782188684e-05</internalNodes>
          <leafValues>
            3.6384916305541992e-01 -3.1912502646446228e-01</leafValues></_>
        <_>
          <internalNodes>
            0 -1 8 -1.1291012633591890e-03</internalNodes>
          <leafValues>
            -6.9986283779144287e-01 1.8281187117099762e-01</leafValues></_>
        <_>
          <internalNodes>
            0 -1 125 -3.7013823166489601e-03</internalNodes>
          <leafValues>
            -7.9641765356063843e-01 1.5931320190429688e-01</leafValues></_></weakClassifiers></_>
    <!-- stage 6 -->
    <_>
      <maxWeakCount>13</maxWeakCount>
      <stageThreshold>-5.1399284601211548e-01</stageThreshold>
      <weakClassifiers>
        <_>
          <internalNodes>
            0 -1 101 -5.8347926824353635e-05</internalNodes>
          <leafValues>
            2.9411765933036804e-01 -5.1724135875701904e-01</leafValues></_>
        <_>
          <internalNodes>
            0 -1 7 -5.0177415832877159e-03</internalNodes>
          <leafValues>
            2.5550037622451782e-01 -5.3468722105026245e-01</leafValues></_>
        <_>
          <internalNodes>
            0 -1 3 8.3480831235647202e-03</internalNodes>
          <leafValues>
            2.1187853813171387e-01 -6.3386052846908569e-01</leafValues></_>
        <_>
          <internalNodes>
            0 -1 85 -7.8478391515091062e-05</internalNodes>
          <leafValues>
            -5.2886795997619629e-01 2.0029632747173309e-01</leafValues></_>
        <_>
          <internalNodes>
            0 -1 123 -3.3403335692128167e-05</internalNodes>
          <leafValues>
            3.4402680397033691e-01 -3.3456602692604065e-01</leafValues></_>
        <_>
          <internalNodes>
            0 -1 44 -1.1433301866054535e-01</internalNodes>
          <leafValues>
            -6.5767258405685425e-01 1.6395285725593567e-01</leafValues></_>
        <_>
          <internalNodes>
            0 -1 29 6.2598916701972485e-04</internalNodes>
          <leafValues>
            2.2652299702167511e-01 -5.2572304010391235e-01</leafValues></_>
        <_>
          <internalNodes>
            0 -1 72 -1.8811555579304695e-02</internalNodes>
          <leafValues>
            8.8083100318908691e-01 -2.0501674711704254e-01</leafValues></_>
        <_>
          <internalNodes>
            0 -1 27 -4.0160990320146084e-03</internalNodes>
          <leafValues>
            -7.0229750871658325e-01 3.0654120445251465e-01</leafValues></_>
        <_>
          <internalNodes>
            0 -1 52 -4.6438790857791901e-02</internalNodes>
          <leafValues>
            2.6425251364707947e-01 -4.3519255518913269e-01</leafValues></_>
        <_>
          <internalNodes>
            0 -1 118 -1.3407485559582710e-02</internalNodes>
          <leafValues>
            6.2077891826629639e-01 -2.4398863315582275e-01</leafValues></_>
        <_>
          <internalNodes>
            0 -1 156 -1.3094046153128147e-04</internalNodes>
          <leafValues>
            -5.1224386692047119e-01 2.9518124461174011e-01</leafValues></_>
        <_>
          <internalNodes>
            0 -1 66 5.2886232733726501e-03</internalNodes>
          <leafValues>
            -2.1791380643844604e-01 7.8515958786010742e-01</leafValues></_></weakClassifiers></_>
    <!-- stage 7 -->
    <_>
      <maxWeakCount>13</maxWeakCount>
      <stageThreshold>-6.9901531934738159e-01</stageThreshold>
      <weakClassifiers>
        <_>
          <internalNodes>
            0 -1 20 -1.0713151842355728e-01</internalNodes>
          <leafValues>
            2.6153847575187683e-01 -4.8571428656578064e-01</leafValues></_>
        <_>
          <internalNodes>
            0 -1 84 3.0877305107424036e-05</internalNodes>
          <leafValues>
            -3.4712895750999451e-01 3.5210555791854858e-01</leafValues></_>
        <_>
          <internalNodes>
            0 -1 80 -3.1575091998092830e-04</internalNodes>
          <leafValues>
            -5.9487181901931763e-01 1.7952454090118408e-01</leafValues></_>
        <_>
          <internalNodes>
            0 -1 22 -2.3152438923716545e-02</internalNodes>
          <leafValues>
            7.3744350671768188e-01 -1.3350141048431396e-01</leafValues></_>
        <_>
          <internalNodes>
            0 -1 83 -6.3587665557861328e-02</internalNodes>
          <leafValues>
            4.6264177560806274e-01 -2.2234611213207245e-01</leafValues></_>
        <_>
          <internalNodes>
            0 -1 65 -7.7581504592671990e-04</internalNodes>
          <leafValues>
            2.8489565849304199e-01 -4.0289318561553955e-01</leafValues></_>
        <_>
          <internalNodes>
            0 -1 26 -6.3064985442906618e-04</internalNodes>
          <leafValues>
            -5.7741183042526245e-01 1.9757759571075439e-01</leafValues></_>
        <_>
          <internalNodes>
            0 -1 148 1.3941880315542221e-03</internalNodes>
          <leafValues>
            1.7132718861103058e-01 -5.4723620414733887e-01</leafValues></_>
        <_>
          <internalNodes>
            0 -1 58 -1.6837961971759796e-01</internalNodes>
          <leafValues>
            9.8524592816829681e-02 -8.8041651248931885e-01</leafValues></_>
        <_>
          <internalNodes>
            0 -1 149 6.2638791860081255e-05</internalNodes>
          <leafValues>
            -2.4907478690147400e-01 4.7987878322601318e-01</leafValues></_>
        <_>
          <internalNodes>
            0 -1 9 -1.5223780274391174e-01</internalNodes>
          <leafValues>
            7.0840179920196533e-01 -1.7986965179443359e-01</leafValues></_>
        <_>
          <internalNodes>
            0 -1 94 -8.4376353770494461e-03</internalNodes>
          <leafValues>
            -8.5559505224227905e-01 1.6723112761974335e-01</leafValues></_>
        <_>
          <internalNodes>
            0 -1 57 1.3454497093334794e-04</internalNodes>
          <leafValues>
            -2.0915016531944275e-01 5.9800791740417480e-01</leafValues></_></weakClassifiers></_>
    <!-- stage 8 -->
    <_>
      <maxWeakCount>16</maxWeakCount>
      <stageThreshold>-4.3870899081230164e-01</stageThreshold>
      <weakClassifiers>
        <_>
          <internalNodes>
            0 -1 92 1.0146442800760269e-02</internalNodes>
          <leafValues>
            -1.9463087618350983e-01 5.6862747669219971e-01</leafValues></_>
        <_>
          <internalNodes>
            0 -1 32 -5.6877754628658295e-02</internalNodes>
          <leafValues>
            -9.0204447507858276e-01 1.1327941715717316e-01</leafValues></_>
        <_>
          <internalNodes>
            0 -1 113 -5.6365948694292456e-05</internalNodes>
          <leafValues>
            3.5991740226745605e-01 -2.9906848073005676e-01</leafValues></_>
        <_>
          <internalNodes>
            0 -1 96 -1.1928307358175516e-03</internalNodes>
          <leafValues>
            3.7714293599128723e-01 -3.6306682229042053e-01</leafValues></_>
        <_>
          <internalNodes>
            0 -1 154 4.5225792564451694e-03</internalNodes>
          <leafValues>
            -1.7744059860706329e-01 5.7828092575073242e-01</leafValues></_>
        <_>
          <internalNodes>
            0 -1 41 1.7127308994531631e-02</internalNodes>
          <leafValues>
            -2.6576235890388489e-01 4.3291863799095154e-01</leafValues></_>
        <_>
          <internalNodes>
            0 -1 78 2.1572210825979710e-03</internalNodes>
          <leafValues>
            1.5172587335109711e-01 -9.1788238286972046e-01</leafValues></_>
        <_>
          <internalNodes>
            0 -1 33 -2.1248430130071938e-04</internalNodes>
          <leafValues>
            -6.0980272293090820e-01 1.5392103791236877e-01</leafValues></_>
        <_>
          <internalNodes>
            0 -1 143 3.7239049561321735e-04</internalNodes>
          <leafValues>
            1.9135765731334686e-01 -5.3946870565414429e-01</leafValues></_>
        <_>
          <internalNodes>
            0 -1 63 -1.1526766233146191e-02</internalNodes>
          <leafValues>
            5.2019697427749634e-01 -2.1052563190460205e-01</leafValues></_>
        <_>
          <internalNodes>
            0 -1 134 -6.9802120327949524e-02</internalNodes>
          <leafValues>
            -7.0138090848922729e-01 1.6143301129341125e-01</leafValues></_>
        <_>
          <internalNodes>
            0 -1 121 -1.2064106995239854e-03</internalNodes>
          <leafValues>
            -5.6183296442031860e-01 1.9185505807399750e-01</leafValues></_>
        <_>
          <internalNodes>
            0 -1 109 -4.3515898287296295e-03</internalNodes>
          <leafValues>
            7.9918450117111206e-01 -1.7208036780357361e-01</leafValues></_>
        <_>
          <internalNodes>
            0 -1 108 -3.8773240521550179e-04</internalNodes>
          <leafValues>
            4.7365632653236389e-01 -2.2263796627521515e-01</leafValues></_>
        <_>
          <internalNodes>
            0 -1 130 -3.2634015951771289e-05</internalNodes>
          <leafValues>
            3.4243017435073853e-01 -3.3331555128097534e-01</leafValues></_>
        <_>
          <internalNodes>
            0 -1 43 -1.7229552031494677e-04</internalNodes>
          <leafValues>
            -4.6857687830924988e-01 2.6523977518081665e-01</leafValues></_></weakClassifiers></_>
    <!-- stage 9 -->
    <_>
      <maxWeakCount>19</maxWeakCount>
      <stageThreshold>-5.0350475311279297e-01</stageThreshold>
      <weakClassifiers>
        <_>
          <internalNodes>
            0 -1 106 -3.3584350603632629e-05</internalNodes>
          <leafValues>
            2.6848247647285461e-01 -4.8251748085021973e-01</leafValues></_>
        <_>
          <internalNodes>
            0 -1 97 -7.2569184703752398e-04</internalNodes>
          <leafValues>
            4.2424342036247253e-01 -2.6959818601608276e-01</leafValues></_>
        <_>
          <internalNodes>
            0 -1 79 3.2708678190829232e-05</internalNodes>
          <leafValues>
            -3.2611697912216187e-01 3.2703205943107605e-01</leafValues></_>
        <_>
          <internalNodes>
            0 -1 131 -1.4655472710728645e-02</internalNodes>
          <leafValues>
            6.7320203781127930e-01 -1.2872420251369476e-01</leafValues></_>
        <_>
          <internalNodes>
            0 -1 108 -3.3306037948932499e-05</internalNodes>
          <leafValues>
            3.8707157969474792e-01 -3.3761841058731079e-01</leafValues></_>
        <_>
          <internalNodes>
            0 -1 105 -5.0588782876729965e-02</internalNodes>
          <leafValues>
            -1.7283387482166290e-01 8.1854456663131714e-01</leafValues></_>
        <_>
          <internalNodes>
            0 -1 5 -9.9148109555244446e-02</internalNodes>
          <leafValues>
            -6.0842388868331909e-01 2.2047562897205353e-01</leafValues></_>
        <_>
          <internalNodes>
            0 -1 151 1.2626042589545250e-03</internalNodes>
          <leafValues>
            2.2320587933063507e-01 -6.2320429086685181e-01</leafValues></_>
        <_>
          <internalNodes>
            0 -1 76 -5.6953329476527870e-05</internalNodes>
          <leafValues>
            -5.4650372266769409e-01 1.8136464059352875e-01</leafValues></_>
        <_>
          <internalNodes>
            0 -1 135 -1.3227092102169991e-02</internalNodes>
          <leafValues>
            6.8198853731155396e-01 -2.0122835040092468e-01</leafValues></_>
        <_>
          <internalNodes>
            0 -1 62 1.6295082867145538e-02</internalNodes>
          <leafValues>
            -1.6541950404644012e-01 6.7701584100723267e-01</leafValues></_>
        <_>
          <internalNodes>
            0 -1 140 -1.3441774062812328e-03</internalNodes>
          <leafValues>
            4.9362152814865112e-01 -2.3664602637290955e-01</leafValues></_>
        <_>
          <internalNodes>
            0 -1 141 2.9485111008398235e-04</internalNodes>
          <leafValues>
            1.7941656708717346e-01 -6.3962554931640625e-01</leafValues></_>
        <_>
          <internalNodes>
            0 -1 133 3.4842454624595121e-05</internalNodes>
          <leafValues>
            -2.7290022373199463e-01 4.1613587737083435e-01</leafValues></_>
        <_>
          <internalNodes>
            0 -1 89 4.9575786106288433e-03</internalNodes>
          <leafValues>
            1.4047366380691528e-01 -6.7294979095458984e-01</leafValues></_>
        <_>
          <internalNodes>
            0 -1 37 -7.8675508499145508e-02</internalNodes>
          <leafValues>
            -1.5719479322433472e-01 8.4928894042968750e-01</leafValues></_>
        <_>
          <internalNodes>
            0 -1 71 2.1626777015626431e-04</internalNodes>
          <leafValues>
            -2.3898893594741821e-01 4.3814155459403992e-01</leafValues></_>
        <_>
          <internalNodes>
            0 -1 114 -1.3421969488263130e-03</internalNodes>
          <leafValues>
            7.4423342943191528e-01 -1.5995591878890991e-01</leafValues></_>
        <_>
          <internalNodes>
            0 -1 70 -3.9703380316495895e-03</internalNodes>
          <leafValues>
            4.3538901209831238e-01 -2.5128227472305298e-01</leafValues></_></weakClassifiers></_>
    <!-- stage 10 -->
    <_>
      <maxWeakCount>15</maxWeakCount>
      <stageThreshold>-5.3329080343246460e-01</stageThreshold>
      <weakClassifiers>
        <_>
          <internalNodes>
            0 -1 23 -1.9345255568623543e-02</internalNodes>
          <leafValues>
            1.6943521797657013e-01 -5.1515150070190430e-01</leafValues></_>
        <_>
          <internalNodes>
            0 -1 39 3.1579984351992607e-05</internalNodes>
          <leafValues>
            -2.0511174201965332e-01 4.8197859525680542e-01</leafValues></_>
        <_>
          <internalNodes>
            0 -1 90 -6.4539931714534760e-02</internalNodes>
          <leafValues>
            -1.4952425658702850e-01 6.3225162029266357e-01</leafValues></_>
        <_>
          <internalNodes>
            0 -1 82 3.1805822800379246e-05</internalNodes>
          <leafValues>
            -2.9459014534950256e-01 3.0094614624977112e-01</leafValues></_>
        <_>
          <internalNodes>
            0 -1 60 2.9372509568929672e-02</internalNodes>
          <leafValues>
            -1.5137612819671631e-01 6.0056537389755249e-01</leafValues></_>
        <_>
          <internalNodes>
            0 -1 147 3.5608299076557159e-02</internalNodes>
          <leafValues>
            -1.1110118031501770e-01 9.3197244405746460e-01</leafValues></_>
        <_>
          <internalNodes>
            0 -1 86 -2.5161146186292171e-03</internalNodes>
          <leafValues>
            -7.9368954896926880e-01 1.3491073250770569e-01</leafValues></_>
        <_>
          <internalNodes>
            0 -1 19 -2.2030216641724110e-03</internalNodes>
          <leafValues>
            -6.9796913862228394e-01 1.3833399116992950e-01</leafValues></_>
        <_>
          <internalNodes>
            0 -1 112 7.7157013583928347e-04</internalNodes>
          <leafValues>
            1.4589624106884003e-01 -6.3799804449081421e-01</leafValues></_>
        <_>
          <internalNodes>
            0 -1 81 -5.3182981908321381e-02</internalNodes>
          <leafValues>
            -9.5143359899520874e-01 6.0746483504772186e-02</leafValues></_>
        <_>
          <internalNodes>
            0 -1 25 -9.0636929962784052e-04</internalNodes>
          <leafValues>
            -7.1805876493453979e-01 1.1101022362709045e-01</leafValues></_>
        <_>
          <internalNodes>
            0 -1 126 1.1006097774952650e-03</internalNodes>
          <leafValues>
            -2.1660912036895752e-01 5.0243455171585083e-01</leafValues></_>
        <_>
          <internalNodes>
            0 -1 100 -7.3790166061371565e-04</internalNodes>
          <leafValues>
            -6.9005459547042847e-01 1.5553461015224457e-01</leafValues></_>
        <_>
          <internalNodes>
            0 -1 110 -2.2877218725625426e-04</internalNodes>
          <leafValues>
            -5.0771713256835938e-01 1.8910200893878937e-01</leafValues></_>
        <_>
          <internalNodes>
            0 -1 35 3.5269415093353018e-05</internalNodes>
          <leafValues>
            -2.4897576868534088e-01 3.8804081082344055e-01</leafValues></_></weakClassifiers></_>
    <!-- stage 11 -->
    <_>
      <maxWeakCount>18</maxWeakCount>
      <stageThreshold>-7.0079725980758667e-01</stageThreshold>
      <weakClassifiers>
        <_>
          <internalNodes>
            0 -1 11 -7.2471365332603455e-02</internalNodes>
          <leafValues>
            5.0877195596694946e-01 -2.0279720425605774e-01</leafValues></_>
        <_>
          <internalNodes>
            0 -1 46 1.0433416900923476e-04</internalNodes>
          <leafValues>
            -1.8078555166721344e-01 4.4850155711174011e-01</leafValues></_>
        <_>
          <internalNodes>
            0 -1 49 5.3319148719310760e-03</internalNodes>
          <leafValues>
            -3.8801458477973938e-01 2.1758086979389191e-01</leafValues></_>
        <_>
          <internalNodes>
            0 -1 36 1.2974289059638977e-01</internalNodes>
          <leafValues>
            1.9090095162391663e-01 -4.5760077238082886e-01</leafValues></_>
        <_>
          <internalNodes>
            0 -1 111 2.3238952271640301e-03</internalNodes>
          <leafValues>
            -1.8639329075813293e-01 5.3409683704376221e-01</leafValues></_>
        <_>
          <internalNodes>
            0 -1 122 -3.3157768484670669e-05</internalNodes>
          <leafValues>
            2.8011742234230042e-01 -3.1997397541999817e-01</leafValues></_>
        <_>
          <internalNodes>
            0 -1 91 -3.0581708415411413e-05</internalNodes>
          <leafValues>
            3.7344127893447876e-01 -2.7791348099708557e-01</leafValues></_>
        <_>
          <internalNodes>
            0 -1 10 -1.0048919357359409e-03</internalNodes>
          <leafValues>
            -7.9496681690216064e-01 1.1732227355241776e-01</leafValues></_>
        <_>
          <internalNodes>
            0 -1 4 -2.6817563921213150e-03</internalNodes>
          <leafValues>
            3.4938818216323853e-01 -3.2446318864822388e-01</leafValues></_>
        <_>
          <internalNodes>
            0 -1 73 -8.1894104368984699e-05</internalNodes>
          <leafValues>
            3.8024371862411499e-01 -2.5982365012168884e-01</leafValues></_>
        <_>
          <internalNodes>
            0 -1 47 1.1926702409982681e-01</internalNodes>
          <leafValues>
            7.6085142791271210e-02 -9.7589600086212158e-01</leafValues></_>
        <_>
          <internalNodes>
            0 -1 14 -4.7860862687230110e-03</internalNodes>
          <leafValues>
            4.0959113836288452e-01 -2.7545750141143799e-01</leafValues></_>
        <_>
          <internalNodes>
            0 -1 38 -1.7418712377548218e-02</internalNodes>
          <leafValues>
            1.4508973062038422e-01 -7.2712367773056030e-01</leafValues></_>
        <_>
          <internalNodes>
            0 -1 145 -1.2239175848662853e-03</internalNodes>
          <leafValues>
            5.3100866079330444e-01 -1.8823273479938507e-01</leafValues></_>
        <_>
          <internalNodes>
            0 -1 150 -6.8609102163463831e-04</internalNodes>
          <leafValues>
            -5.9318941831588745e-01 1.7387771606445313e-01</leafValues></_>
        <_>
          <internalNodes>
            0 -1 138 -4.7428729012608528e-03</internalNodes>
          <leafValues>
            5.8300465345382690e-01 -1.4611138403415680e-01</leafValues></_>
        <_>
          <internalNodes>
            0 -1 104 1.9593328237533569e-02</internalNodes>
          <leafValues>
            3.2079651951789856e-01 -3.2331129908561707e-01</leafValues></_>
        <_>
          <internalNodes>
            0 -1 67 -8.0141890794038773e-04</internalNodes>
          <leafValues>
            5.1290768384933472e-01 -1.8344296514987946e-01</leafValues></_></weakClassifiers></_></stages>
  <features>
    <_>
      <rects>
        <_>
          0 0 2 2 -1.</_>
        <_>
          1 0 1 2 2.</_></rects>
      <tilted>0</tilted></_>
    <_>
      <rects>
        <_>
          0 0 1 16 -1.</_>
        <_>
          0 8 1 8 2.</_></rects>
      <tilted>0</tilted></_>
    <_>
      <rects>
        <_>
          0 0 6 22 -1.</_>
        <_>
          3 0 3 22 2.</_></rects>
      <tilted>0</tilted></_>
    <_>
      <rects>
        <_>
          0 0 16 1 -1.</_>
        <_>
          8 0 8 1 2.</_></rects>
      <tilted>0</tilted></_>
    <_>
      <rects>
        <_>
          0 1 2 23 -1.</_>
        <_>
          1 1 1 23 2.</_></rects>
      <tilted>0</tilted></_>
    <_>
      <rects>
        <_>
          0 1 20 18 -1.</_>
        <_>
          10 1 10 18 2.</_></rects>
      <tilted>0</tilted></_>
    <_>
      <rects>
        <_>
          0 2 6 3 -1.</_>
        <_>
          3 2 3 3 2.</_></rects>
      <tilted>0</tilted></_>
    <_>
      <rects>
        <_>
          0 4 1 3 -1.</_>
        <_>
          0 5 1 1 2.</_></rects>
      <tilted>0</tilted></_>
    <_>
      <rects>
        <_>
          0 4 1 4 -1.</_>
        <_>
          0 6 1 2 2.</_></rects>
      <tilted>0</tilted></_>
    <_>
      <rects>
        <_>
          0 5 22 14 -1.</_>
        <_>
          0 5 11 7 2.</_>
        <_>
          11 12 11 7 2.</_></rects>
      <tilted>0</tilted></_>
    <_>
      <rects>
        <_>
          0 6 2 2 -1.</_>
        <_>
          0 7 2 1 2.</_></rects>
      <tilted>0</tilted></_>
    <_>
      <rects>
        <_>
          0 6 12 16 -1.</_>
        <_>
          6 6 6 16 2.</_></rects>
      <tilted>0</tilted></_>
    <_>
      <rects>
        <_>
          0 7 1 8 -1.</_>
        <_>
          0 11 1 4 2.</_></rects>
      <tilted>0</tilted></_>
    <_>
      <rects>
        <_>
          0 7 7 14 -1.</_>
        <_>
          0 14 7 7 2.</_></rects>
      <tilted>0</tilted></_>
    <_>
      <rects>
        <_>
          0 7 8 4 -1.</_>
        <_>
          0 9 8 2 2.</_></rects>
      <tilted>0</tilted></_>
    <_>
      <rects>
        <_>
          0 8 1 16 -1.</_>
        <_>
          0 16 1 8 2.</_></rects>
      <tilted>0</tilted></_>
    <_>
      <rects>
        <_>
          0 9 6 12 -1.</_>
        <_>
          3 9 3 12 2.</_></rects>
      <tilted>0</tilted></_>
    <_>
      <rects>
        <_>
          0 9 8 8 -1.</_>
        <_>
          4 9 4 8 2.</_></rects>
      <tilted>0</tilted></_>
    <_>
      <rects>
        <_>
          0 10 1 10 -1.</_>
        <_>
          0 15 1 5 2.</_></rects>
      <tilted>0</tilted></_>
    <_>
      <rects>
        <_>
          0 10 2 4 -1.</_>
        <_>
          0 12 2 2 2.</_></rects>
      <tilted>0</tilted></_>
    <_>
      <rects>
        <_>
          0 10 6 11 -1.</_>
        <_>
          2 10 2 11 2.</_></rects>
      <tilted>0</tilted></_>
    <_>
      <rects>
        <_>
          0 11 8 9 -1.</_>
        <_>
          4 11 4 9 2.</_></rects>
      <tilted>0</tilted></_>
    <_>
      <rects>
        <_>
          0 12 4 7 -1.</_>
        <_>
          2 12 2 7 2.</_></rects>
      <tilted>0</tilted></_>
    <_>
      <rects>
        <_>
          0 13 2 6 -1.</_>
        <_>
          0 15 2 2 2.</_></rects>
      <tilted>0</tilted></_>
    <_>
      <rects>
        <_>
          0 14 3 10 -1.</_>
        <_>
          0 19 3 5 2.</_></rects>
      <tilted>0</tilted></_>
    <_>
      <rects>
        <_>
          0 16 1 4 -1.</_>
        <_>
          0 18 1 2 2.</_></rects>
      <tilted>0</tilted></_>
    <_>
      <rects>
        <_>
          0 16 1 8 -1.</_>
        <_>
          0 20 1 4 2.</_></rects>
      <tilted>0</tilted></_>
    <_>
      <rects>
        <_>
          0 16 12 6 -1.</_>
        <_>
          0 19 12 3 2.</_></rects>
      <tilted>0</tilted></_>
    <_>
      <rects>
        <_>
          0 17 24 6 -1.</_>
        <_>
          0 20 24 3 2.</_></rects>
      <tilted>0</tilted></_>
    <_>
      <rects>
        <_>
          0 18 1 4 -1.</_>
        <_>
          0 20 1 2 2.</_></rects>
      <tilted>0</tilted></_>
    <_>
      <rects>
        <_>
          0 18 1 6 -1.</_>
        <_>
          0 21 1 3 2.</_></rects>
      <tilted>0</tilted></_>
    <_>
      <rects>
        <_>
          0 20 1 4 -1.</_>
        <_>
          0 22 1 2 2.</_></rects>
      <tilted>0</tilted></_>
    <_>
      <rects>
        <_>
          0 21 20 3 -1.</_>
        <_>
          10 21 10 3 2.</_></rects>
      <tilted>0</tilted></_>
    <_>
      <rects>
        <_>
          0 23 2 1 -1.</_>
        <_>
          1 23 1 1 2.</_></rects>
      <tilted>0</tilted></_>
    <_>
      <rects>
        <_>
          1 0 2 2 -1.</_>
        <_>
          1 1 2 1 2.</_></rects>
      <tilted>0</tilted></_>
    <_>
      <rects>
        <_>
          2 1 2 6 -1.</_>
        <_>
          2 1 1 3 2.</_>
        <_>
          3 4 1 3 2.</_></rects>
      <tilted>0</tilted></_>
    <_>
      <rects>
        <_>
          2 2 18 22 -1.</_>
        <_>
          11 2 9 22 2.</_></rects>
      <tilted>0</tilted></_>
    <_>
      <rects>
        <_>
          2 6 19 3 -1.</_>
        <_>
          2 7 19 1 2.</_></rects>
      <tilted>0</tilted></_>
    <_>
      <rects>
        <_>
          2 9 5 3 -1.</_>
        <_>
          2 10 5 1 2.</_></rects>
      <tilted>0</tilted></_>
    <_>
      <rects>
        <_>
          2 14 2 1 -1.</_>
        <_>
          3 14 1 1 2.</_></rects>
      <tilted>0</tilted></_>
    <_>
      <rects>
        <_>
          2 14 21 10 -1.</_>
        <_>
          2 19 21 5 2.</_></rects>
      <tilted>0</tilted></_>
    <_>
      <rects>
        <_>
          2 16 16 3 -1.</_>
        <_>
          10 16 8 3 2.</_></rects>
      <tilted>0</tilted></_>
    <_>
      <rects>
        <_>
          2 16 22 8 -1.</_>
        <_>
          2 20 22 4 2.</_></rects>
      <tilted>0</tilted></_>
    <_>
      <rects>
        <_>
          2 21 2 3 -1.</_>
        <_>
          3 21 1 3 2.</_></rects>
      <tilted>0</tilted></_>
    <_>
      <rects>
        <_>
          3 0 16 24 -1.</_>
        <_>
          11 0 8 24 2.</_></rects>
      <tilted>0</tilted></_>
    <_>
      <rects>
        <_>
          3 12 14 10 -1.</_>
        <_>
          3 17 14 5 2.</_></rects>
      <tilted>0</tilted></_>
    <_>
      <rects>
        <_>
          3 13 2 1 -1.</_>
        <_>
          4 13 1 1 2.</_></rects>
      <tilted>0</tilted></_>
    <_>
      <rects>
        <_>
          3 13 8 10 -1.</_>
        <_>
          3 18 8 5 2.</_></rects>
      <tilted>0</tilted></_>
    <_>
      <rects>
        <_>
          3 17 3 5 -1.</_>
        <_>
          4 17 1 5 2.</_></rects>
      <tilted>0</tilted></_>
    <_>
      <rects>
        <_>
          3 19 21 4 -1.</_>
        <_>
          3 21 21 2 2.</_></rects>
      <tilted>0</tilted></_>
    <_>
      <rects>
        <_>
          3 20 3 1 -1.</_>
        <_>
          4 20 1 1 2.</_></rects>
      <tilted>0</tilted></_>
    <_>
      <rects>
        <_>
          3 21 3 3 -1.</_>
        <_>
          3 22 3 1 2.</_></rects>
      <tilted>0</tilted></_>
    <_>
      <rects>
        <_>
          4 0 17 22 -1.</_>
        <_>
          4 11 17 11 2.</_></rects>
      <tilted>0</tilted></_>
    <_>
      <rects>
        <_>
          4 3 4 20 -1.</_>
        <_>
          6 3 2 20 2.</_></rects>
      <tilted>0</tilted></_>
    <_>
      <rects>
        <_>
          4 3 8 16 -1.</_>
        <_>
          4 3 4 8 2.</_>
        <_>
          8 11 4 8 2.</_></rects>
      <tilted>0</tilted></_>
    <_>
      <rects>
        <_>
          4 4 18 14 -1.</_>
        <_>
          4 4 9 7 2.</_>
        <_>
          13 11 9 7 2.</_></rects>
      <tilted>0</tilted></_>
    <_>
      <rects>
        <_>
          4 10 4 1 -1.</_>
        <_>
          6 10 2 1 2.</_></rects>
      <tilted>0</tilted></_>
    <_>
      <rects>
        <_>
          4 18 2 1 -1.</_>
        <_>
          5 18 1 1 2.</_></rects>
      <tilted>0</tilted></_>
    <_>
      <rects>
        <_>
          5 0 11 15 -1.</_>
        <_>
          5 5 11 5 2.</_></rects>
      <tilted>0</tilted></_>
    <_>
      <rects>
        <_>
          5 0 17 20 -1.</_>
        <_>
          5 10 17 10 2.</_></rects>
      <tilted>0</tilted></_>
    <_>
      <rects>
        <_>
          5 2 6 22 -1.</_>
        <_>
          5 2 3 11 2.</_>
        <_>
          8 13 3 11 2.</_></rects>
      <tilted>0</tilted></_>
    <_>
      <rects>
        <_>
          5 4 8 10 -1.</_>
        <_>
          5 4 4 5 2.</_>
        <_>
          9 9 4 5 2.</_></rects>
      <tilted>0</tilted></_>
    <_>
      <rects>
        <_>
          5 5 4 16 -1.</_>
        <_>
          5 5 2 8 2.</_>
        <_>
          7 13 2 8 2.</_></rects>
      <tilted>0</tilted></_>
    <_>
      <rects>
        <_>
          5 6 13 4 -1.</_>
        <_>
          5 8 13 2 2.</_></rects>
      <tilted>0</tilted></_>
    <_>
      <rects>
        <_>
          5 7 18 14 -1.</_>
        <_>
          5 7 9 7 2.</_>
        <_>
          14 14 9 7 2.</_></rects>
      <tilted>0</tilted></_>
    <_>
      <rects>
        <_>
          5 10 7 2 -1.</_>
        <_>
          5 11 7 1 2.</_></rects>
      <tilted>0</tilted></_>
    <_>
      <rects>
        <_>
          5 11 2 4 -1.</_>
        <_>
          5 13 2 2 2.</_></rects>
      <tilted>0</tilted></_>
    <_>
      <rects>
        <_>
          5 14 2 4 -1.</_>
        <_>
          5 14 1 2 2.</_>
        <_>
          6 16 1 2 2.</_></rects>
      <tilted>0</tilted></_>
    <_>
      <rects>
        <_>
          6 0 9 24 -1.</_>
        <_>
          6 12 9 12 2.</_></rects>
      <tilted>0</tilted></_>
    <_>
      <rects>
        <_>
          6 2 12 14 -1.</_>
        <_>
          10 2 4 14 2.</_></rects>
      <tilted>0</tilted></_>
    <_>
      <rects>
        <_>
          6 2 16 1 -1.</_>
        <_>
          14 2 8 1 2.</_></rects>
      <tilted>0</tilted></_>
    <_>
      <rects>
        <_>
          6 9 2 2 -1.</_>
        <_>
          7 9 1 2 2.</_></rects>
      <tilted>0</tilted></_>
    <_>
      <rects>
        <_>
          6 9 1 12 -1.</_>
        <_>
          6 15 1 6 2.</_></rects>
      <tilted>0</tilted></_>
    <_>
      <rects>
        <_>
          6 11 2 4 -1.</_>
        <_>
          6 11 1 2 2.</_>
        <_>
          7 13 1 2 2.</_></rects>
      <tilted>0</tilted></_>
    <_>
      <rects>
        <_>
          6 11 4 8 -1.</_>
        <_>
          6 15 4 4 2.</_></rects>
      <tilted>0</tilted></_>
    <_>
      <rects>
        <_>
          6 12 8 12 -1.</_>
        <_>
          6 12 4 6 2.</_>
        <_>
          10 18 4 6 2.</_></rects>
      <tilted>0</tilted></_>
    <_>
      <rects>
        <_>
          6 19 11 4 -1.</_>
        <_>
          6 21 11 2 2.</_></rects>
      <tilted>0</tilted></_>
    <_>
      <rects>
        <_>
          7 0 11 24 -1.</_>
        <_>
          7 12 11 12 2.</_></rects>
      <tilted>0</tilted></_>
    <_>
      <rects>
        <_>
          7 1 2 4 -1.</_>
        <_>
          7 1 1 2 2.</_>
        <_>
          8 3 1 2 2.</_></rects>
      <tilted>0</tilted></_>
    <_>
      <rects>
        <_>
          7 10 2 2 -1.</_>
        <_>
          8 10 1 2 2.</_></rects>
      <tilted>0</tilted></_>
    <_>
      <rects>
        <_>
          8 2 1 2 -1.</_>
        <_>
          8 3 1 1 2.</_></rects>
      <tilted>0</tilted></_>
    <_>
      <rects>
        <_>
          8 6 3 10 -1.</_>
        <_>
          8 11 3 5 2.</_></rects>
      <tilted>0</tilted></_>
    <_>
      <rects>
        <_>
          8 9 2 1 -1.</_>
        <_>
          9 9 1 1 2.</_></rects>
      <tilted>0</tilted></_>
    <_>
      <rects>
        <_>
          8 9 15 10 -1.</_>
        <_>
          8 14 15 5 2.</_></rects>
      <tilted>0</tilted></_>
    <_>
      <rects>
        <_>
          8 10 2 1 -1.</_>
        <_>
          9 10 1 1 2.</_></rects>
      <tilted>0</tilted></_>
    <_>
      <rects>
        <_>
          8 23 4 1 -1.</_>
        <_>
          10 23 2 1 2.</_></rects>
      <tilted>0</tilted></_>
    <_>
      <rects>
        <_>
          9 0 4 1 -1.</_>
        <_>
          11 0 2 1 2.</_></rects>
      <tilted>0</tilted></_>
    <_>
      <rects>
        <_>
          9 0 3 18 -1.</_>
        <_>
          9 6 3 6 2.</_></rects>
      <tilted>0</tilted></_>
    <_>
      <rects>
        <_>
          9 8 1 2 -1.</_>
        <_>
          9 9 1 1 2.</_></rects>
      <tilted>0</tilted></_>
    <_>
      <rects>
        <_>
          10 6 2 8 -1.</_>
        <_>
          10 6 1 4 2.</_>
        <_>
          11 10 1 4 2.</_></rects>
      <tilted>0</tilted></_>
    <_>
      <rects>
        <_>
          10 6 6 8 -1.</_>
        <_>
          12 6 2 8 2.</_></rects>
      <tilted>0</tilted></_>
    <_>
      <rects>
        <_>
          10 8 1 2 -1.</_>
        <_>
          10 9 1 1 2.</_></rects>
      <tilted>0</tilted></_>
    <_>
      <rects>
        <_>
          10 14 2 6 -1.</_>
        <_>
          10 17 2 3 2.</_></rects>
      <tilted>0</tilted></_>
    <_>
      <rects>
        <_>
          11 0 4 4 -1.</_>
        <_>
          11 2 4 2 2.</_></rects>
      <tilted>0</tilted></_>
    <_>
      <rects>
        <_>
          11 0 12 1 -1.</_>
        <_>
          17 0 6 1 2.</_></rects>
      <tilted>0</tilted></_>
    <_>
      <rects>
        <_>
          11 0 7 10 -1.</_>
        <_>
          11 5 7 5 2.</_></rects>
      <tilted>0</tilted></_>
    <_>
      <rects>
        <_>
          11 7 6 1 -1.</_>
        <_>
          14 7 3 1 2.</_></rects>
      <tilted>0</tilted></_>
    <_>
      <rects>
        <_>
          11 8 4 2 -1.</_>
        <_>
          11 9 4 1 2.</_></rects>
      <tilted>0</tilted></_>
    <_>
      <rects>
        <_>
          11 9 3 8 -1.</_>
        <_>
          11 13 3 4 2.</_></rects>
      <tilted>0</tilted></_>
    <_>
      <rects>
        <_>
          11 11 1 2 -1.</_>
        <_>
          11 12 1 1 2.</_></rects>
      <tilted>0</tilted></_>
    <_>
      <rects>
        <_>
          11 13 2 1 -1.</_>
        <_>
          12 13 1 1 2.</_></rects>
      <tilted>0</tilted></_>
    <_>
      <rects>
        <_>
          11 13 1 2 -1.</_>
        <_>
          11 14 1 1 2.</_></rects>
      <tilted>0</tilted></_>
    <_>
      <rects>
        <_>
          11 14 2 8 -1.</_>
        <_>
          11 18 2 4 2.</_></rects>
      <tilted>0</tilted></_>
    <_>
      <rects>
        <_>
          11 16 1 2 -1.</_>
        <_>
          11 17 1 1 2.</_></rects>
      <tilted>0</tilted></_>
    <_>
      <rects>
        <_>
          12 1 8 18 -1.</_>
        <_>
          12 1 4 9 2.</_>
        <_>
          16 10 4 9 2.</_></rects>
      <tilted>0</tilted></_>
    <_>
      <rects>
        <_>
          12 6 6 7 -1.</_>
        <_>
          14 6 2 7 2.</_></rects>
      <tilted>0</tilted></_>
    <_>
      <rects>
        <_>
          12 12 1 2 -1.</_>
        <_>
          12 13 1 1 2.</_></rects>
      <tilted>0</tilted></_>
    <_>
      <rects>
        <_>
          12 13 1 2 -1.</_>
        <_>
          12 14 1 1 2.</_></rects>
      <tilted>0</tilted></_>
    <_>
      <rects>
        <_>
          12 15 1 2 -1.</_>
        <_>
          12 16 1 1 2.</_></rects>
      <tilted>0</tilted></_>
    <_>
      <rects>
        <_>
          12 16 6 2 -1.</_>
        <_>
          12 16 3 1 2.</_>
        <_>
          15 17 3 1 2.</_></rects>
      <tilted>0</tilted></_>
    <_>
      <rects>
        <_>
          13 0 1 4 -1.</_>
        <_>
          13 2 1 2 2.</_></rects>
      <tilted>0</tilted></_>
    <_>
      <rects>
        <_>
          13 4 1 4 -1.</_>
        <_>
          13 6 1 2 2.</_></rects>
      <tilted>0</tilted></_>
    <_>
      <rects>
        <_>
          13 11 4 2 -1.</_>
        <_>
          13 12 4 1 2.</_></rects>
      <tilted>0</tilted></_>
    <_>
      <rects>
        <_>
          13 15 1 2 -1.</_>
        <_>
          13 16 1 1 2.</_></rects>
      <tilted>0</tilted></_>
    <_>
      <rects>
        <_>
          13 16 5 2 -1.</_>
        <_>
          13 17 5 1 2.</_></rects>
      <tilted>0</tilted></_>
    <_>
      <rects>
        <_>
          14 0 1 10 -1.</_>
        <_>
          14 5 1 5 2.</_></rects>
      <tilted>0</tilted></_>
    <_>
      <rects>
        <_>
          14 8 2 4 -1.</_>
        <_>
          15 8 1 4 2.</_></rects>
      <tilted>0</tilted></_>
    <_>
      <rects>
        <_>
          14 10 1 2 -1.</_>
        <_>
          14 11 1 1 2.</_></rects>
      <tilted>0</tilted></_>
    <_>
      <rects>
        <_>
          14 10 6 12 -1.</_>
        <_>
          17 10 3 12 2.</_></rects>
      <tilted>0</tilted></_>
    <_>
      <rects>
        <_>
          14 11 1 2 -1.</_>
        <_>
          14 12 1 1 2.</_></rects>
      <tilted>0</tilted></_>
    <_>
      <rects>
        <_>
          14 12 1 2 -1.</_>
        <_>
          14 13 1 1 2.</_></rects>
      <tilted>0</tilted></_>
    <_>
      <rects>
        <_>
          14 14 4 10 -1.</_>
        <_>
          14 19 4 5 2.</_></rects>
      <tilted>0</tilted></_>
    <_>
      <rects>
        <_>
          15 6 2 2 -1.</_>
        <_>
          15 7 2 1 2.</_></rects>
      <tilted>0</tilted></_>
    <_>
      <rects>
        <_>
          15 10 2 1 -1.</_>
        <_>
          16 10 1 1 2.</_></rects>
      <tilted>0</tilted></_>
    <_>
      <rects>
        <_>
          15 12 2 2 -1.</_>
        <_>
          15 13 2 1 2.</_></rects>
      <tilted>0</tilted></_>
    <_>
      <rects>
        <_>
          16 1 8 1 -1.</_>
        <_>
          20 1 4 1 2.</_></rects>
      <tilted>0</tilted></_>
    <_>
      <rects>
        <_>
          16 2 4 6 -1.</_>
        <_>
          16 2 2 3 2.</_>
        <_>
          18 5 2 3 2.</_></rects>
      <tilted>0</tilted></_>
    <_>
      <rects>
        <_>
          16 4 3 4 -1.</_>
        <_>
          16 6 3 2 2.</_></rects>
      <tilted>0</tilted></_>
    <_>
      <rects>
        <_>
          16 7 2 1 -1.</_>
        <_>
          17 7 1 1 2.</_></rects>
      <tilted>0</tilted></_>
    <_>
      <rects>
        <_>
          16 8 2 1 -1.</_>
        <_>
          17 8 1 1 2.</_></rects>
      <tilted>0</tilted></_>
    <_>
      <rects>
        <_>
          16 10 2 1 -1.</_>
        <_>
          17 10 1 1 2.</_></rects>
      <tilted>0</tilted></_>
    <_>
      <rects>
        <_>
          16 10 6 8 -1.</_>
        <_>
          16 10 3 4 2.</_>
        <_>
          19 14 3 4 2.</_></rects>
      <tilted>0</tilted></_>
    <_>
      <rects>
        <_>
          16 11 2 2 -1.</_>
        <_>
          16 12 2 1 2.</_></rects>
      <tilted>0</tilted></_>
    <_>
      <rects>
        <_>
          16 14 2 1 -1.</_>
        <_>
          17 14 1 1 2.</_></rects>
      <tilted>0</tilted></_>
    <_>
      <rects>
        <_>
          17 0 7 12 -1.</_>
        <_>
          17 6 7 6 2.</_></rects>
      <tilted>0</tilted></_>
    <_>
      <rects>
        <_>
          17 2 4 10 -1.</_>
        <_>
          19 2 2 10 2.</_></rects>
      <tilted>0</tilted></_>
    <_>
      <rects>
        <_>
          17 6 2 2 -1.</_>
        <_>
          18 6 1 2 2.</_></rects>
      <tilted>0</tilted></_>
    <_>
      <rects>
        <_>
          17 7 4 10 -1.</_>
        <_>
          17 7 2 5 2.</_>
        <_>
          19 12 2 5 2.</_></rects>
      <tilted>0</tilted></_>
    <_>
      <rects>
        <_>
          17 9 4 6 -1.</_>
        <_>
          17 9 2 3 2.</_>
        <_>
          19 12 2 3 2.</_></rects>
      <tilted>0</tilted></_>
    <_>
      <rects>
        <_>
          17 11 2 1 -1.</_>
        <_>
          18 11 1 1 2.</_></rects>
      <tilted>0</tilted></_>
    <_>
      <rects>
        <_>
          17 11 7 2 -1.</_>
        <_>
          17 12 7 1 2.</_></rects>
      <tilted>0</tilted></_>
    <_>
      <rects>
        <_>
          17 20 1 2 -1.</_>
        <_>
          17 21 1 1 2.</_></rects>
      <tilted>0</tilted></_>
    <_>
      <rects>
        <_>
          17 22 1 2 -1.</_>
        <_>
          17 23 1 1 2.</_></rects>
      <tilted>0</tilted></_>
    <_>
      <rects>
        <_>
          18 0 2 8 -1.</_>
        <_>
          18 0 1 4 2.</_>
        <_>
          19 4 1 4 2.</_></rects>
      <tilted>0</tilted></_>
    <_>
      <rects>
        <_>
          18 2 6 18 -1.</_>
        <_>
          21 2 3 18 2.</_></rects>
      <tilted>0</tilted></_>
    <_>
      <rects>
        <_>
          18 12 3 2 -1.</_>
        <_>
          18 13 3 1 2.</_></rects>
      <tilted>0</tilted></_>
    <_>
      <rects>
        <_>
          19 4 2 1 -1.</_>
        <_>
          20 4 1 1 2.</_></rects>
      <tilted>0</tilted></_>
    <_>
      <rects>
        <_>
          20 8 4 15 -1.</_>
        <_>
          22 8 2 15 2.</_></rects>
      <tilted>0</tilted></_>
    <_>
      <rects>
        <_>
          20 20 2 4 -1.</_>
        <_>
          20 22 2 2 2.</_></rects>
      <tilted>0</tilted></_>
    <_>
      <rects>
        <_>
          21 2 2 1 -1.</_>
        <_>
          22 2 1 1 2.</_></rects>
      <tilted>0</tilted></_>
    <_>
      <rects>
        <_>
          21 13 1 4 -1.</_>
        <_>
          21 15 1 2 2.</_></rects>
      <tilted>0</tilted></_>
    <_>
      <rects>
        <_>
          21 15 1 4 -1.</_>
        <_>
          21 17 1 2 2.</_></rects>
      <tilted>0</tilted></_>
    <_>
      <rects>
        <_>
          21 20 2 4 -1.</_>
        <_>
          22 20 1 4 2.</_></rects>
      <tilted>0</tilted></_>
    <_>
      <rects>
        <_>
          22 2 2 7 -1.</_>
        <_>
          23 2 1 7 2.</_></rects>
      <tilted>0</tilted></_>
    <_>
      <rects>
        <_>
          22 3 2 17 -1.</_>
        <_>
          23 3 1 17 2.</_></rects>
      <tilted>0</tilted></_>
    <_>
      <rects>
        <_>
          22 22 2 2 -1.</_>
        <_>
          22 23 2 1 2.</_></rects>
      <tilted>0</tilted></_>
    <_>
      <rects>
        <_>
          23 12 1 2 -1.</_>
        <_>
          23 13 1 1 2.</_></rects>
      <tilted>0</tilted></_>
    <_>
      <rects>
        <_>
          23 14 1 4 -1.</_>
        <_>
          23 16 1 2 2.</_></rects>
      <tilted>0</tilted></_></features></cascade>
</opencv_storage>
