<?xml version="1.0"?>
<opencv_storage>
<cascade>
  <stageType>BOOST</stageType>
  <featureType>HAAR</featureType>
  <height>24</height>
  <width>24</width>
  <stageParams>
    <boostType>GAB</boostType>
    <minHitRate>9.9500000476837158e-01</minHitRate>
    <maxFalseAlarm>3.0000001192092896e-01</maxFalseAlarm>
    <weightTrimRate>9.4999999999999996e-01</weightTrimRate>
    <maxDepth>1</maxDepth>
    <maxWeakCount>100</maxWeakCount></stageParams>
  <featureParams>
    <maxCatCount>0</maxCatCount>
    <featSize>1</featSize>
    <mode>BASIC</mode></featureParams>
  <stageNum>9</stageNum>
  <stages>
    <!-- stage 0 -->
    <_>
      <maxWeakCount>5</maxWeakCount>
      <stageThreshold>-1.3204509019851685e+00</stageThreshold>
      <weakClassifiers>
        <_>
          <internalNodes>
            0 -1 19 -7.2137445211410522e-02</internalNodes>
          <leafValues>
            3.5802468657493591e-01 -8.8095235824584961e-01</leafValues></_>
        <_>
          <internalNodes>
            0 -1 6 3.6428466439247131e-02</internalNodes>
          <leafValues>
            -7.4780052900314331e-01 3.8233950734138489e-01</leafValues></_>
        <_>
          <internalNodes>
            0 -1 40 -8.0571109720040113e-05</internalNodes>
          <leafValues>
            4.4160306453704834e-01 -8.0104368925094604e-01</leafValues></_>
        <_>
          <internalNodes>
            0 -1 31 1.0977173224091530e-02</internalNodes>
          <leafValues>
            -5.1704585552215576e-01 6.2651067972183228e-01</leafValues></_>
        <_>
          <internalNodes>
            0 -1 45 -6.9685826019849628e-05</internalNodes>
          <leafValues>
            5.0935816764831543e-01 -7.4639523029327393e-01</leafValues></_></weakClassifiers></_>
    <!-- stage 1 -->
    <_>
      <maxWeakCount>5</maxWeakCount>
      <stageThreshold>-1.1486474275588989e+00</stageThreshold>
      <weakClassifiers>
        <_>
          <internalNodes>
            0 -1 48 3.2498586922883987e-02</internalNodes>
          <leafValues>
            -8.2879376411437988e-01 1.5492957830429077e-01</leafValues></_>
        <_>
          <internalNodes>
            0 -1 28 4.9104571342468262e-02</internalNodes>
          <leafValues>
            -6.7708295583724976e-01 4.0634250640869141e-01</leafValues></_>
        <_>
          <internalNodes>
            0 -1 13 -2.7127407491207123e-02</internalNodes>
          <leafValues>
            7.1634531021118164e-01 -4.0471866726875305e-01</leafValues></_>
        <_>
          <internalNodes>
            0 -1 53 -1.8288870342075825e-04</internalNodes>
          <leafValues>
            4.8989701271057129e-01 -4.5519518852233887e-01</leafValues></_>
        <_>
          <internalNodes>
            0 -1 30 6.1315899074543267e-05</internalNodes>
          <leafValues>
            -7.1167236566543579e-01 3.5215669870376587e-01</leafValues></_></weakClassifiers></_>
    <!-- stage 2 -->
    <_>
      <maxWeakCount>6</maxWeakCount>
      <stageThreshold>-1.3963010311126709e+00</stageThreshold>
      <weakClassifiers>
        <_>
          <internalNodes>
            0 -1 33 9.4037204980850220e-02</internalNodes>
          <leafValues>
            -7.9487180709838867e-01 4.8717948794364929e-01</leafValues></_>
        <_>
          <internalNodes>
            0 -1 42 -2.9700295999646187e-03</internalNodes>
          <leafValues>
            3.0823972821235657e-01 -6.7578017711639404e-01</leafValues></_>
        <_>
          <internalNodes>
            0 -1 49 -8.1321792094968259e-05</internalNodes>
          <leafValues>
            2.9402282834053040e-01 -6.6548997163772583e-01</leafValues></_>
        <_>
          <internalNodes>
            0 -1 27 4.1054305620491505e-03</internalNodes>
          <leafValues>
            -3.6403378844261169e-01 5.3064519166946411e-01</leafValues></_>
        <_>
          <internalNodes>
            0 -1 37 -1.6992489690892398e-04</internalNodes>
          <leafValues>
            3.8313770294189453e-01 -5.5953490734100342e-01</leafValues></_>
        <_>
          <internalNodes>
            0 -1 8 4.5241287443786860e-04</internalNodes>
          <leafValues>
            -6.2023764848709106e-01 3.8135832548141479e-01</leafValues></_></weakClassifiers></_>
    <!-- stage 3 -->
    <_>
      <maxWeakCount>8</maxWeakCount>
      <stageThreshold>-1.2046829462051392e+00</stageThreshold>
      <weakClassifiers>
        <_>
          <internalNodes>
            0 -1 22 7.0309471338987350e-03</internalNodes>
          <leafValues>
            -7.8676468133926392e-01 3.1707316637039185e-01</leafValues></_>
        <_>
          <internalNodes>
            0 -1 35 1.3846300542354584e-02</internalNodes>
          <leafValues>
            -5.4230248928070068e-01 4.1186574101448059e-01</leafValues></_>
        <_>
          <internalNodes>
            0 -1 39 -6.5771117806434631e-02</internalNodes>
          <leafValues>
            -1. 2.0753450691699982e-01</leafValues></_>
        <_>
          <internalNodes>
            0 -1 23 -1.8378317356109619e-02</internalNodes>
          <leafValues>
            7.1002644300460815e-01 -3.7167817354202271e-01</leafValues></_>
        <_>
          <internalNodes>
            0 -1 15 5.8964812196791172e-03</internalNodes>
          <leafValues>
            -2.6332429051399231e-01 7.5638180971145630e-01</leafValues></_>
        <_>
          <internalNodes>
            0 -1 0 -2.6186746545135975e-03</internalNodes>
          <leafValues>
            -5.8995270729064941e-01 4.0597373247146606e-01</leafValues></_>
        <_>
          <internalNodes>
            0 -1 16 1.6793418675661087e-02</internalNodes>
          <leafValues>
            -4.7713351249694824e-01 4.5748627185821533e-01</leafValues></_>
        <_>
          <internalNodes>
            0 -1 24 -9.8389387130737305e-03</internalNodes>
          <leafValues>
            6.2301200628280640e-01 -3.5772946476936340e-01</leafValues></_></weakClassifiers></_>
    <!-- stage 4 -->
    <_>
      <maxWeakCount>9</maxWeakCount>
      <stageThreshold>-1.3318924903869629e+00</stageThreshold>
      <weakClassifiers>
        <_>
          <internalNodes>
            0 -1 57 -2.0126417279243469e-02</internalNodes>
          <leafValues>
            2.6315790414810181e-01 -7.7696526050567627e-01</leafValues></_>
        <_>
          <internalNodes>
            0 -1 7 -6.0718595981597900e-02</internalNodes>
          <leafValues>
            1.5577208995819092e-01 -6.4583694934844971e-01</leafValues></_>
        <_>
          <internalNodes>
            0 -1 34 -3.8733393885195255e-03</internalNodes>
          <leafValues>
            3.9368814229965210e-01 -4.4144761562347412e-01</leafValues></_>
        <_>
          <internalNodes>
            0 -1 52 -1.7953739734366536e-04</internalNodes>
          <leafValues>
            3.6799839138984680e-01 -4.2940536141395569e-01</leafValues></_>
        <_>
          <internalNodes>
            0 -1 11 -4.4165947474539280e-03</internalNodes>
          <leafValues>
            -9.5708358287811279e-01 1.5142947435379028e-01</leafValues></_>
        <_>
          <internalNodes>
            0 -1 55 5.5926926434040070e-03</internalNodes>
          <leafValues>
            -2.5001361966133118e-01 7.1536064147949219e-01</leafValues></_>
        <_>
          <internalNodes>
            0 -1 3 -3.1790010631084442e-02</internalNodes>
          <leafValues>
            -9.5106917619705200e-01 1.8922373652458191e-01</leafValues></_>
        <_>
          <internalNodes>
            0 -1 26 -3.5559199750423431e-02</internalNodes>
          <leafValues>
            5.0242060422897339e-01 -4.0269526839256287e-01</leafValues></_>
        <_>
          <internalNodes>
            0 -1 54 1.5912480652332306e-02</internalNodes>
          <leafValues>
            -3.5872122645378113e-01 4.7968849539756775e-01</leafValues></_></weakClassifiers></_>
    <!-- stage 5 -->
    <_>
      <maxWeakCount>7</maxWeakCount>
      <stageThreshold>-9.0083175897598267e-01</stageThreshold>
      <weakClassifiers>
        <_>
          <internalNodes>
            0 -1 50 -1.7896089702844620e-02</internalNodes>
          <leafValues>
            6.3636362552642822e-01 -7.6198935508728027e-01</leafValues></_>
        <_>
          <internalNodes>
            0 -1 4 6.5421704202890396e-03</internalNodes>
          <leafValues>
            9.4304211437702179e-02 -7.6143360137939453e-01</leafValues></_>
        <_>
          <internalNodes>
            0 -1 62 -2.2504791617393494e-02</internalNodes>
          <leafValues>
            2.6732802391052246e-01 -6.2597179412841797e-01</leafValues></_>
        <_>
          <internalNodes>
            0 -1 2 1.3891464099287987e-02</internalNodes>
          <leafValues>
            1.4995369315147400e-01 -1.</leafValues></_>
        <_>
          <internalNodes>
            0 -1 58 -5.5911783128976822e-03</internalNodes>
          <leafValues>
            6.8722081184387207e-01 -2.6818412542343140e-01</leafValues></_>
        <_>
          <internalNodes>
            0 -1 61 1.3876309618353844e-02</internalNodes>
          <leafValues>
            2.7127218246459961e-01 -7.4172967672348022e-01</leafValues></_>
        <_>
          <internalNodes>
            0 -1 59 3.5490308073349297e-04</internalNodes>
          <leafValues>
            -6.1336255073547363e-01 3.5948550701141357e-01</leafValues></_></weakClassifiers></_>
    <!-- stage 6 -->
    <_>
      <maxWeakCount>7</maxWeakCount>
      <stageThreshold>-8.7737143039703369e-01</stageThreshold>
      <weakClassifiers>
        <_>
          <internalNodes>
            0 -1 20 -2.1163530647754669e-02</internalNodes>
          <leafValues>
            2.1951219439506531e-01 -7.7941179275512695e-01</leafValues></_>
        <_>
          <internalNodes>
            0 -1 10 5.1448442973196507e-03</internalNodes>
          <leafValues>
            2.8044601902365685e-02 -8.2697373628616333e-01</leafValues></_>
        <_>
          <internalNodes>
            0 -1 44 6.2176107894629240e-04</internalNodes>
          <leafValues>
            1.1159490793943405e-01 -9.7292214632034302e-01</leafValues></_>
        <_>
          <internalNodes>
            0 -1 38 3.2220543362200260e-03</internalNodes>
          <leafValues>
            -2.0551383495330811e-01 7.4736529588699341e-01</leafValues></_>
        <_>
          <internalNodes>
            0 -1 17 1.1242751497775316e-03</internalNodes>
          <leafValues>
            -2.0707844197750092e-01 6.7869418859481812e-01</leafValues></_>
        <_>
          <internalNodes>
            0 -1 5 -1.6398336738348007e-03</internalNodes>
          <leafValues>
            -8.5067898035049438e-01 2.1026501059532166e-01</leafValues></_>
        <_>
          <internalNodes>
            0 -1 14 -1.0259309411048889e-01</internalNodes>
          <leafValues>
            -7.6621818542480469e-01 1.3989944756031036e-01</leafValues></_></weakClassifiers></_>
    <!-- stage 7 -->
    <_>
      <maxWeakCount>9</maxWeakCount>
      <stageThreshold>-1.0163358449935913e+00</stageThreshold>
      <weakClassifiers>
        <_>
          <internalNodes>
            0 -1 47 6.0895197093486786e-03</internalNodes>
          <leafValues>
            -7.6156586408615112e-01 5.6521737575531006e-01</leafValues></_>
        <_>
          <internalNodes>
            0 -1 51 3.5918228328227997e-02</internalNodes>
          <leafValues>
            -5.1125609874725342e-01 3.7968474626541138e-01</leafValues></_>
        <_>
          <internalNodes>
            0 -1 18 4.1631544008851051e-03</internalNodes>
          <leafValues>
            1.5618962049484253e-01 -1.</leafValues></_>
        <_>
          <internalNodes>
            0 -1 56 -9.3114757910370827e-03</internalNodes>
          <leafValues>
            4.7611236572265625e-01 -3.5762673616409302e-01</leafValues></_>
        <_>
          <internalNodes>
            0 -1 29 -4.9563511274755001e-03</internalNodes>
          <leafValues>
            4.5232987403869629e-01 -3.9247894287109375e-01</leafValues></_>
        <_>
          <internalNodes>
            0 -1 9 -1.9244369468651712e-04</internalNodes>
          <leafValues>
            -4.4389709830284119e-01 4.0673559904098511e-01</leafValues></_>
        <_>
          <internalNodes>
            0 -1 60 -2.6678601279854774e-03</internalNodes>
          <leafValues>
            -6.7472398281097412e-01 2.4415767192840576e-01</leafValues></_>
        <_>
          <internalNodes>
            0 -1 46 -6.7209434928372502e-04</internalNodes>
          <leafValues>
            6.5336030721664429e-01 -2.6156046986579895e-01</leafValues></_>
        <_>
          <internalNodes>
            0 -1 36 -6.6944867372512817e-02</internalNodes>
          <leafValues>
            6.3260865211486816e-01 -2.9859700798988342e-01</leafValues></_></weakClassifiers></_>
    <!-- stage 8 -->
    <_>
      <maxWeakCount>7</maxWeakCount>
      <stageThreshold>-9.2025208473205566e-01</stageThreshold>
      <weakClassifiers>
        <_>
          <internalNodes>
            0 -1 12 -4.7441542148590088e-02</internalNodes>
          <leafValues>
            -2.8571428731083870e-02 -8.0194175243377686e-01</leafValues></_>
        <_>
          <internalNodes>
            0 -1 43 -5.1437108777463436e-04</internalNodes>
          <leafValues>
            -7.7723526954650879e-01 9.5163032412528992e-02</leafValues></_>
        <_>
          <internalNodes>
            0 -1 32 1.7852529417723417e-03</internalNodes>
          <leafValues>
            2.7479234337806702e-01 -5.6415635347366333e-01</leafValues></_>
        <_>
          <internalNodes>
            0 -1 1 1.3754167594015598e-03</internalNodes>
          <leafValues>
            2.4750855565071106e-01 -6.7780244350433350e-01</leafValues></_>
        <_>
          <internalNodes>
            0 -1 21 -6.0538481920957565e-04</internalNodes>
          <leafValues>
            4.2587262392044067e-01 -3.2804366946220398e-01</leafValues></_>
        <_>
          <internalNodes>
            0 -1 41 -3.4660370147321373e-05</internalNodes>
          <leafValues>
            2.4796438217163086e-01 -6.5574008226394653e-01</leafValues></_>
        <_>
          <internalNodes>
            0 -1 25 8.5669063264504075e-04</internalNodes>
          <leafValues>
            -3.5121166706085205e-01 4.1940414905548096e-01</leafValues></_></weakClassifiers></_></stages>
  <features>
    <_>
      <rects>
        <_>
          0 0 1 12 -1.</_>
        <_>
          0 6 1 6 2.</_></rects>
      <tilted>0</tilted></_>
    <_>
      <rects>
        <_>
          0 0 4 3 -1.</_>
        <_>
          2 0 2 3 2.</_></rects>
      <tilted>0</tilted></_>
    <_>
      <rects>
        <_>
          0 0 10 3 -1.</_>
        <_>
          5 0 5 3 2.</_></rects>
      <tilted>0</tilted></_>
    <_>
      <rects>
        <_>
          0 10 7 14 -1.</_>
        <_>
          0 17 7 7 2.</_></rects>
      <tilted>0</tilted></_>
    <_>
      <rects>
        <_>
          0 12 2 10 -1.</_>
        <_>
          0 17 2 5 2.</_></rects>
      <tilted>0</tilted></_>
    <_>
      <rects>
        <_>
          0 13 2 4 -1.</_>
        <_>
          0 15 2 2 2.</_></rects>
      <tilted>0</tilted></_>
    <_>
      <rects>
        <_>
          0 13 19 8 -1.</_>
        <_>
          0 17 19 4 2.</_></rects>
      <tilted>0</tilted></_>
    <_>
      <rects>
        <_>
          1 6 4 6 -1.</_>
        <_>
          1 8 4 2 2.</_></rects>
      <tilted>0</tilted></_>
    <_>
      <rects>
        <_>
          1 17 14 2 -1.</_>
        <_>
          1 18 14 1 2.</_></rects>
      <tilted>0</tilted></_>
    <_>
      <rects>
        <_>
          2 18 16 6 -1.</_>
        <_>
          10 18 8 6 2.</_></rects>
      <tilted>0</tilted></_>
    <_>
      <rects>
        <_>
          2 20 8 3 -1.</_>
        <_>
          6 20 4 3 2.</_></rects>
      <tilted>0</tilted></_>
    <_>
      <rects>
        <_>
          2 21 8 2 -1.</_>
        <_>
          6 21 4 2 2.</_></rects>
      <tilted>0</tilted></_>
    <_>
      <rects>
        <_>
          3 5 20 12 -1.</_>
        <_>
          3 5 10 6 2.</_>
        <_>
          13 11 10 6 2.</_></rects>
      <tilted>0</tilted></_>
    <_>
      <rects>
        <_>
          4 6 6 6 -1.</_>
        <_>
          4 9 6 3 2.</_></rects>
      <tilted>0</tilted></_>
    <_>
      <rects>
        <_>
          4 6 20 16 -1.</_>
        <_>
          14 6 10 16 2.</_></rects>
      <tilted>0</tilted></_>
    <_>
      <rects>
        <_>
          6 12 6 2 -1.</_>
        <_>
          9 12 3 2 2.</_></rects>
      <tilted>0</tilted></_>
    <_>
      <rects>
        <_>
          6 12 8 6 -1.</_>
        <_>
          6 15 8 3 2.</_></rects>
      <tilted>0</tilted></_>
    <_>
      <rects>
        <_>
          6 13 2 2 -1.</_>
        <_>
          7 13 1 2 2.</_></rects>
      <tilted>0</tilted></_>
    <_>
      <rects>
        <_>
          7 0 8 1 -1.</_>
        <_>
          11 0 4 1 2.</_></rects>
      <tilted>0</tilted></_>
    <_>
      <rects>
        <_>
          7 4 8 10 -1.</_>
        <_>
          7 9 8 5 2.</_></rects>
      <tilted>0</tilted></_>
    <_>
      <rects>
        <_>
          7 5 5 4 -1.</_>
        <_>
          7 7 5 2 2.</_></rects>
      <tilted>0</tilted></_>
    <_>
      <rects>
        <_>
          7 7 1 2 -1.</_>
        <_>
          7 8 1 1 2.</_></rects>
      <tilted>0</tilted></_>
    <_>
      <rects>
        <_>
          7 11 2 8 -1.</_>
        <_>
          7 11 1 4 2.</_>
        <_>
          8 15 1 4 2.</_></rects>
      <tilted>0</tilted></_>
    <_>
      <rects>
        <_>
          7 11 6 5 -1.</_>
        <_>
          10 11 3 5 2.</_></rects>
      <tilted>0</tilted></_>
    <_>
      <rects>
        <_>
          7 11 7 4 -1.</_>
        <_>
          7 13 7 2 2.</_></rects>
      <tilted>0</tilted></_>
    <_>
      <rects>
        <_>
          7 12 2 4 -1.</_>
        <_>
          8 12 1 4 2.</_></rects>
      <tilted>0</tilted></_>
    <_>
      <rects>
        <_>
          8 5 12 5 -1.</_>
        <_>
          14 5 6 5 2.</_></rects>
      <tilted>0</tilted></_>
    <_>
      <rects>
        <_>
          8 7 2 12 -1.</_>
        <_>
          9 7 1 12 2.</_></rects>
      <tilted>0</tilted></_>
    <_>
      <rects>
        <_>
          8 9 6 14 -1.</_>
        <_>
          8 16 6 7 2.</_></rects>
      <tilted>0</tilted></_>
    <_>
      <rects>
        <_>
          8 12 16 4 -1.</_>
        <_>
          8 12 8 2 2.</_>
        <_>
          16 14 8 2 2.</_></rects>
      <tilted>0</tilted></_>
    <_>
      <rects>
        <_>
          8 17 7 6 -1.</_>
        <_>
          8 20 7 3 2.</_></rects>
      <tilted>0</tilted></_>
    <_>
      <rects>
        <_>
          9 1 4 6 -1.</_>
        <_>
          9 4 4 3 2.</_></rects>
      <tilted>0</tilted></_>
    <_>
      <rects>
        <_>
          9 3 10 20 -1.</_>
        <_>
          14 3 5 20 2.</_></rects>
      <tilted>0</tilted></_>
    <_>
      <rects>
        <_>
          9 5 12 10 -1.</_>
        <_>
          9 5 6 5 2.</_>
        <_>
          15 10 6 5 2.</_></rects>
      <tilted>0</tilted></_>
    <_>
      <rects>
        <_>
          9 6 2 4 -1.</_>
        <_>
          9 8 2 2 2.</_></rects>
      <tilted>0</tilted></_>
    <_>
      <rects>
        <_>
          10 0 3 8 -1.</_>
        <_>
          10 4 3 4 2.</_></rects>
      <tilted>0</tilted></_>
    <_>
      <rects>
        <_>
          10 0 12 10 -1.</_>
        <_>
          10 5 12 5 2.</_></rects>
      <tilted>0</tilted></_>
    <_>
      <rects>
        <_>
          11 8 1 2 -1.</_>
        <_>
          11 9 1 1 2.</_></rects>
      <tilted>0</tilted></_>
    <_>
      <rects>
        <_>
          11 16 2 5 -1.</_>
        <_>
          12 16 1 5 2.</_></rects>
      <tilted>0</tilted></_>
    <_>
      <rects>
        <_>
          12 0 1 15 -1.</_>
        <_>
          12 5 1 5 2.</_></rects>
      <tilted>0</tilted></_>
    <_>
      <rects>
        <_>
          12 9 1 2 -1.</_>
        <_>
          12 10 1 1 2.</_></rects>
      <tilted>0</tilted></_>
    <_>
      <rects>
        <_>
          12 10 1 2 -1.</_>
        <_>
          12 11 1 1 2.</_></rects>
      <tilted>0</tilted></_>
    <_>
      <rects>
        <_>
          12 10 10 2 -1.</_>
        <_>
          12 11 10 1 2.</_></rects>
      <tilted>0</tilted></_>
    <_>
      <rects>
        <_>
          12 17 10 2 -1.</_>
        <_>
          17 17 5 2 2.</_></rects>
      <tilted>0</tilted></_>
    <_>
      <rects>
        <_>
          13 0 2 2 -1.</_>
        <_>
          14 0 1 2 2.</_></rects>
      <tilted>0</tilted></_>
    <_>
      <rects>
        <_>
          14 9 1 2 -1.</_>
        <_>
          14 10 1 1 2.</_></rects>
      <tilted>0</tilted></_>
    <_>
      <rects>
        <_>
          14 11 2 1 -1.</_>
        <_>
          15 11 1 1 2.</_></rects>
      <tilted>0</tilted></_>
    <_>
      <rects>
        <_>
          14 13 2 3 -1.</_>
        <_>
          15 13 1 3 2.</_></rects>
      <tilted>0</tilted></_>
    <_>
      <rects>
        <_>
          15 5 6 12 -1.</_>
        <_>
          15 5 3 6 2.</_>
        <_>
          18 11 3 6 2.</_></rects>
      <tilted>0</tilted></_>
    <_>
      <rects>
        <_>
          15 7 1 2 -1.</_>
        <_>
          15 8 1 1 2.</_></rects>
      <tilted>0</tilted></_>
    <_>
      <rects>
        <_>
          15 8 1 10 -1.</_>
        <_>
          15 13 1 5 2.</_></rects>
      <tilted>0</tilted></_>
    <_>
      <rects>
        <_>
          16 0 8 15 -1.</_>
        <_>
          20 0 4 15 2.</_></rects>
      <tilted>0</tilted></_>
    <_>
      <rects>
        <_>
          16 4 2 2 -1.</_>
        <_>
          16 5 2 1 2.</_></rects>
      <tilted>0</tilted></_>
    <_>
      <rects>
        <_>
          16 6 1 2 -1.</_>
        <_>
          16 7 1 1 2.</_></rects>
      <tilted>0</tilted></_>
    <_>
      <rects>
        <_>
          16 7 8 12 -1.</_>
        <_>
          16 7 4 6 2.</_>
        <_>
          20 13 4 6 2.</_></rects>
      <tilted>0</tilted></_>
    <_>
      <rects>
        <_>
          16 9 2 14 -1.</_>
        <_>
          16 9 1 7 2.</_>
        <_>
          17 16 1 7 2.</_></rects>
      <tilted>0</tilted></_>
    <_>
      <rects>
        <_>
          17 4 4 11 -1.</_>
        <_>
          19 4 2 11 2.</_></rects>
      <tilted>0</tilted></_>
    <_>
      <rects>
        <_>
          17 5 1 12 -1.</_>
        <_>
          17 11 1 6 2.</_></rects>
      <tilted>0</tilted></_>
    <_>
      <rects>
        <_>
          18 5 2 4 -1.</_>
        <_>
          18 7 2 2 2.</_></rects>
      <tilted>0</tilted></_>
    <_>
      <rects>
        <_>
          20 8 3 10 -1.</_>
        <_>
          20 13 3 5 2.</_></rects>
      <tilted>0</tilted></_>
    <_>
      <rects>
        <_>
          22 0 2 20 -1.</_>
        <_>
          22 0 1 10 2.</_>
        <_>
          23 10 1 10 2.</_></rects>
      <tilted>0</tilted></_>
    <_>
      <rects>
        <_>
          22 9 2 12 -1.</_>
        <_>
          22 15 2 6 2.</_></rects>
      <tilted>0</tilted></_>
    <_>
      <rects>
        <_>
          23 5 1 9 -1.</_>
        <_>
          23 8 1 3 2.</_></rects>
      <tilted>0</tilted></_></features></cascade>
</opencv_storage>
