<?xml version="1.0"?>
<opencv_storage>
<stage2>
  <maxWeakCount>6</maxWeakCount>
  <stageThreshold>-1.3963010311126709e+00</stageThreshold>
  <weakClassifiers>
    <_>
      <internalNodes>
        0 -1 102014 9.4037204980850220e-02</internalNodes>
      <leafValues>
        -7.9487180709838867e-01 4.8717948794364929e-01</leafValues></_>
    <_>
      <internalNodes>
        0 -1 126029 -2.9700295999646187e-03</internalNodes>
      <leafValues>
        3.0823972821235657e-01 -6.7578017711639404e-01</leafValues></_>
    <_>
      <internalNodes>
        0 -1 141625 -8.1321792094968259e-05</internalNodes>
      <leafValues>
        2.9402282834053040e-01 -6.6548997163772583e-01</leafValues></_>
    <_>
      <internalNodes>
        0 -1 94258 4.1054305620491505e-03</internalNodes>
      <leafValues>
        -3.6403378844261169e-01 5.3064519166946411e-01</leafValues></_>
    <_>
      <internalNodes>
        0 -1 118249 -1.6992489690892398e-04</internalNodes>
      <leafValues>
        3.8313770294189453e-01 -5.5953490734100342e-01</leafValues></_>
    <_>
      <internalNodes>
        0 -1 24955 4.5241287443786860e-04</internalNodes>
      <leafValues>
        -6.2023764848709106e-01 3.8135832548141479e-01</leafValues></_></weakClassifiers></stage2>
</opencv_storage>
