<?xml version="1.0"?>
<opencv_storage>
<stage8>
  <maxWeakCount>7</maxWeakCount>
  <stageThreshold>-9.2025208473205566e-01</stageThreshold>
  <weakClassifiers>
    <_>
      <internalNodes>
        0 -1 42802 -4.7441542148590088e-02</internalNodes>
      <leafValues>
        -2.8571428731083870e-02 -8.0194175243377686e-01</leafValues></_>
    <_>
      <internalNodes>
        0 -1 127552 -5.1437108777463436e-04</internalNodes>
      <leafValues>
        -7.7723526954650879e-01 9.5163032412528992e-02</leafValues></_>
    <_>
      <internalNodes>
        0 -1 100899 1.7852529417723417e-03</internalNodes>
      <leafValues>
        2.7479234337806702e-01 -5.6415635347366333e-01</leafValues></_>
    <_>
      <internalNodes>
        0 -1 90 1.3754167594015598e-03</internalNodes>
      <leafValues>
        2.4750855565071106e-01 -6.7780244350433350e-01</leafValues></_>
    <_>
      <internalNodes>
        0 -1 85271 -6.0538481920957565e-04</internalNodes>
      <leafValues>
        4.2587262392044067e-01 -3.2804366946220398e-01</leafValues></_>
    <_>
      <internalNodes>
        0 -1 125749 -3.4660370147321373e-05</internalNodes>
      <leafValues>
        2.4796438217163086e-01 -6.5574008226394653e-01</leafValues></_>
    <_>
      <internalNodes>
        0 -1 87551 8.5669063264504075e-04</internalNodes>
      <leafValues>
        -3.5121166706085205e-01 4.1940414905548096e-01</leafValues></_></weakClassifiers></stage8>
</opencv_storage>
