<?xml version="1.0"?>
<opencv_storage>
<stage7>
  <maxWeakCount>9</maxWeakCount>
  <stageThreshold>-1.0163358449935913e+00</stageThreshold>
  <weakClassifiers>
    <_>
      <internalNodes>
        0 -1 138088 6.0895197093486786e-03</internalNodes>
      <leafValues>
        -7.6156586408615112e-01 5.6521737575531006e-01</leafValues></_>
    <_>
      <internalNodes>
        0 -1 144298 3.5918228328227997e-02</internalNodes>
      <leafValues>
        -5.1125609874725342e-01 3.7968474626541138e-01</leafValues></_>
    <_>
      <internalNodes>
        0 -1 81000 4.1631544008851051e-03</internalNodes>
      <leafValues>
        1.5618962049484253e-01 -1.</leafValues></_>
    <_>
      <internalNodes>
        0 -1 149505 -9.3114757910370827e-03</internalNodes>
      <leafValues>
        4.7611236572265625e-01 -3.5762673616409302e-01</leafValues></_>
    <_>
      <internalNodes>
        0 -1 96685 -4.9563511274755001e-03</internalNodes>
      <leafValues>
        4.5232987403869629e-01 -3.9247894287109375e-01</leafValues></_>
    <_>
      <internalNodes>
        0 -1 37348 -1.9244369468651712e-04</internalNodes>
      <leafValues>
        -4.4389709830284119e-01 4.0673559904098511e-01</leafValues></_>
    <_>
      <internalNodes>
        0 -1 161221 -2.6678601279854774e-03</internalNodes>
      <leafValues>
        -6.7472398281097412e-01 2.4415767192840576e-01</leafValues></_>
    <_>
      <internalNodes>
        0 -1 137618 -6.7209434928372502e-04</internalNodes>
      <leafValues>
        6.5336030721664429e-01 -2.6156046986579895e-01</leafValues></_>
    <_>
      <internalNodes>
        0 -1 107376 -6.6944867372512817e-02</internalNodes>
      <leafValues>
        6.3260865211486816e-01 -2.9859700798988342e-01</leafValues></_></weakClassifiers></stage7>
</opencv_storage>
