<?xml version="1.0"?>
<opencv_storage>
<stage0>
  <maxWeakCount>5</maxWeakCount>
  <stageThreshold>-1.3204509019851685e+00</stageThreshold>
  <weakClassifiers>
    <_>
      <internalNodes>
        0 -1 83962 -7.2137445211410522e-02</internalNodes>
      <leafValues>
        3.5802468657493591e-01 -8.8095235824584961e-01</leafValues></_>
    <_>
      <internalNodes>
        0 -1 10990 3.6428466439247131e-02</internalNodes>
      <leafValues>
        -7.4780052900314331e-01 3.8233950734138489e-01</leafValues></_>
    <_>
      <internalNodes>
        0 -1 125413 -8.0571109720040113e-05</internalNodes>
      <leafValues>
        4.4160306453704834e-01 -8.0104368925094604e-01</leafValues></_>
    <_>
      <internalNodes>
        0 -1 99560 1.0977173224091530e-02</internalNodes>
      <leafValues>
        -5.1704585552215576e-01 6.2651067972183228e-01</leafValues></_>
    <_>
      <internalNodes>
        0 -1 137087 -6.9685826019849628e-05</internalNodes>
      <leafValues>
        5.0935816764831543e-01 -7.4639523029327393e-01</leafValues></_></weakClassifiers></stage0>
</opencv_storage>
