<?xml version="1.0"?>
<opencv_storage>
<stage1>
  <maxWeakCount>5</maxWeakCount>
  <stageThreshold>-1.1486474275588989e+00</stageThreshold>
  <weakClassifiers>
    <_>
      <internalNodes>
        0 -1 141176 3.2498586922883987e-02</internalNodes>
      <leafValues>
        -8.2879376411437988e-01 1.5492957830429077e-01</leafValues></_>
    <_>
      <internalNodes>
        0 -1 95457 4.9104571342468262e-02</internalNodes>
      <leafValues>
        -6.7708295583724976e-01 4.0634250640869141e-01</leafValues></_>
    <_>
      <internalNodes>
        0 -1 54561 -2.7127407491207123e-02</internalNodes>
      <leafValues>
        7.1634531021118164e-01 -4.0471866726875305e-01</leafValues></_>
    <_>
      <internalNodes>
        0 -1 145895 -1.8288870342075825e-04</internalNodes>
      <leafValues>
        4.8989701271057129e-01 -4.5519518852233887e-01</leafValues></_>
    <_>
      <internalNodes>
        0 -1 98022 6.1315899074543267e-05</internalNodes>
      <leafValues>
        -7.1167236566543579e-01 3.5215669870376587e-01</leafValues></_></weakClassifiers></stage1>
</opencv_storage>
