<?xml version="1.0"?>
<opencv_storage>
<stage4>
  <maxWeakCount>9</maxWeakCount>
  <stageThreshold>-1.3318924903869629e+00</stageThreshold>
  <weakClassifiers>
    <_>
      <internalNodes>
        0 -1 149661 -2.0126417279243469e-02</internalNodes>
      <leafValues>
        2.6315790414810181e-01 -7.7696526050567627e-01</leafValues></_>
    <_>
      <internalNodes>
        0 -1 18987 -6.0718595981597900e-02</internalNodes>
      <leafValues>
        1.5577208995819092e-01 -6.4583694934844971e-01</leafValues></_>
    <_>
      <internalNodes>
        0 -1 102267 -3.8733393885195255e-03</internalNodes>
      <leafValues>
        3.9368814229965210e-01 -4.4144761562347412e-01</leafValues></_>
    <_>
      <internalNodes>
        0 -1 145403 -1.7953739734366536e-04</internalNodes>
      <leafValues>
        3.6799839138984680e-01 -4.2940536141395569e-01</leafValues></_>
    <_>
      <internalNodes>
        0 -1 37816 -4.4165947474539280e-03</internalNodes>
      <leafValues>
        -9.5708358287811279e-01 1.5142947435379028e-01</leafValues></_>
    <_>
      <internalNodes>
        0 -1 146660 5.5926926434040070e-03</internalNodes>
      <leafValues>
        -2.5001361966133118e-01 7.1536064147949219e-01</leafValues></_>
    <_>
      <internalNodes>
        0 -1 9113 -3.1790010631084442e-02</internalNodes>
      <leafValues>
        -9.5106917619705200e-01 1.8922373652458191e-01</leafValues></_>
    <_>
      <internalNodes>
        0 -1 93436 -3.5559199750423431e-02</internalNodes>
      <leafValues>
        5.0242060422897339e-01 -4.0269526839256287e-01</leafValues></_>
    <_>
      <internalNodes>
        0 -1 146328 1.5912480652332306e-02</internalNodes>
      <leafValues>
        -3.5872122645378113e-01 4.7968849539756775e-01</leafValues></_></weakClassifiers></stage4>
</opencv_storage>
