<?xml version="1.0"?>
<opencv_storage>
<cascade>
  <stageType>BOOST</stageType>
  <featureType>HAAR</featureType>
  <height>24</height>
  <width>24</width>
  <stageParams>
    <boostType>GAB</boostType>
    <minHitRate>9.9500000476837158e-01</minHitRate>
    <maxFalseAlarm>3.0000001192092896e-01</maxFalseAlarm>
    <weightTrimRate>9.4999999999999996e-01</weightTrimRate>
    <maxDepth>1</maxDepth>
    <maxWeakCount>100</maxWeakCount></stageParams>
  <featureParams>
    <maxCatCount>0</maxCatCount>
    <featSize>1</featSize>
    <mode>BASIC</mode></featureParams>
  <stageNum>10</stageNum>
  <stages>
    <!-- stage 0 -->
    <_>
      <maxWeakCount>4</maxWeakCount>
      <stageThreshold>-9.4638127088546753e-01</stageThreshold>
      <weakClassifiers>
        <_>
          <internalNodes>
            0 -1 23 -7.2137445211410522e-02</internalNodes>
          <leafValues>
            4.0625000000000000e-01 -8.7684726715087891e-01</leafValues></_>
        <_>
          <internalNodes>
            0 -1 5 3.6428466439247131e-02</internalNodes>
          <leafValues>
            -7.5251227617263794e-01 4.5052796602249146e-01</leafValues></_>
        <_>
          <internalNodes>
            0 -1 34 -4.9772588536143303e-03</internalNodes>
          <leafValues>
            4.2124369740486145e-01 -8.2601016759872437e-01</leafValues></_>
        <_>
          <internalNodes>
            0 -1 14 -2.3130662739276886e-03</internalNodes>
          <leafValues>
            -8.5603606700897217e-01 3.0594825744628906e-01</leafValues></_></weakClassifiers></_>
    <!-- stage 1 -->
    <_>
      <maxWeakCount>6</maxWeakCount>
      <stageThreshold>-1.5378748178482056e+00</stageThreshold>
      <weakClassifiers>
        <_>
          <internalNodes>
            0 -1 3 -7.8210517764091492e-02</internalNodes>
          <leafValues>
            7.0370370149612427e-01 -7.8781038522720337e-01</leafValues></_>
        <_>
          <internalNodes>
            0 -1 31 1.6504099592566490e-02</internalNodes>
          <leafValues>
            -5.6421452760696411e-01 5.8242481946945190e-01</leafValues></_>
        <_>
          <internalNodes>
            0 -1 44 -9.3142996774986386e-05</internalNodes>
          <leafValues>
            4.3018972873687744e-01 -7.0388609170913696e-01</leafValues></_>
        <_>
          <internalNodes>
            0 -1 16 7.9985419288277626e-03</internalNodes>
          <leafValues>
            -5.1068782806396484e-01 5.2368229627609253e-01</leafValues></_>
        <_>
          <internalNodes>
            0 -1 49 -7.5616757385432720e-05</internalNodes>
          <leafValues>
            4.4626465439796448e-01 -5.7311671972274780e-01</leafValues></_>
        <_>
          <internalNodes>
            0 -1 25 3.9346236735582352e-03</internalNodes>
          <leafValues>
            -5.5069041252136230e-01 4.6776494383811951e-01</leafValues></_></weakClassifiers></_>
    <!-- stage 2 -->
    <_>
      <maxWeakCount>7</maxWeakCount>
      <stageThreshold>-1.4794838428497314e+00</stageThreshold>
      <weakClassifiers>
        <_>
          <internalNodes>
            0 -1 32 4.6055644750595093e-02</internalNodes>
          <leafValues>
            -7.7927929162979126e-01 6.1538463830947876e-01</leafValues></_>
        <_>
          <internalNodes>
            0 -1 47 4.2997620999813080e-02</internalNodes>
          <leafValues>
            -5.3824186325073242e-01 7.0760804414749146e-01</leafValues></_>
        <_>
          <internalNodes>
            0 -1 35 -7.1017217123880982e-05</internalNodes>
          <leafValues>
            4.0052172541618347e-01 -6.8906897306442261e-01</leafValues></_>
        <_>
          <internalNodes>
            0 -1 57 3.6165891215205193e-03</internalNodes>
          <leafValues>
            -6.0803925991058350e-01 4.3165829777717590e-01</leafValues></_>
        <_>
          <internalNodes>
            0 -1 36 -8.0822646850720048e-05</internalNodes>
          <leafValues>
            4.0010413527488708e-01 -5.7846373319625854e-01</leafValues></_>
        <_>
          <internalNodes>
            0 -1 22 6.8585216067731380e-03</internalNodes>
          <leafValues>
            -3.0290576815605164e-01 8.0514055490493774e-01</leafValues></_>
        <_>
          <internalNodes>
            0 -1 19 -1.7324440181255341e-02</internalNodes>
          <leafValues>
            8.8398116827011108e-01 -2.6903247833251953e-01</leafValues></_></weakClassifiers></_>
    <!-- stage 3 -->
    <_>
      <maxWeakCount>5</maxWeakCount>
      <stageThreshold>-1.0066841840744019e+00</stageThreshold>
      <weakClassifiers>
        <_>
          <internalNodes>
            0 -1 10 -1.6522159799933434e-02</internalNodes>
          <leafValues>
            5.2631579339504242e-02 -8.0629539489746094e-01</leafValues></_>
        <_>
          <internalNodes>
            0 -1 27 3.7821866571903229e-02</internalNodes>
          <leafValues>
            -6.1975985765457153e-01 2.2503092885017395e-01</leafValues></_>
        <_>
          <internalNodes>
            0 -1 12 6.7447096109390259e-02</internalNodes>
          <leafValues>
            -3.7612983584403992e-01 7.2505700588226318e-01</leafValues></_>
        <_>
          <internalNodes>
            0 -1 30 4.2208922095596790e-03</internalNodes>
          <leafValues>
            2.8099933266639709e-01 -8.6129438877105713e-01</leafValues></_>
        <_>
          <internalNodes>
            0 -1 28 -2.1933864802122116e-02</internalNodes>
          <leafValues>
            7.2180467844009399e-01 -2.8918236494064331e-01</leafValues></_></weakClassifiers></_>
    <!-- stage 4 -->
    <_>
      <maxWeakCount>7</maxWeakCount>
      <stageThreshold>-1.1283687353134155e+00</stageThreshold>
      <weakClassifiers>
        <_>
          <internalNodes>
            0 -1 43 -5.8375805616378784e-02</internalNodes>
          <leafValues>
            7.5000000000000000e-01 -7.5330394506454468e-01</leafValues></_>
        <_>
          <internalNodes>
            0 -1 48 -4.2437319643795490e-04</internalNodes>
          <leafValues>
            2.6927316188812256e-01 -6.7377036809921265e-01</leafValues></_>
        <_>
          <internalNodes>
            0 -1 40 -7.9085002653300762e-05</internalNodes>
          <leafValues>
            3.1652680039405823e-01 -6.0811120271682739e-01</leafValues></_>
        <_>
          <internalNodes>
            0 -1 11 -1.1134953796863556e-01</internalNodes>
          <leafValues>
            4.9470457434654236e-01 -4.1855999827384949e-01</leafValues></_>
        <_>
          <internalNodes>
            0 -1 54 -1.4057557564228773e-03</internalNodes>
          <leafValues>
            6.0438281297683716e-01 -3.9070290327072144e-01</leafValues></_>
        <_>
          <internalNodes>
            0 -1 17 -1.1355967726558447e-03</internalNodes>
          <leafValues>
            5.4464364051818848e-01 -3.6254721879959106e-01</leafValues></_>
        <_>
          <internalNodes>
            0 -1 42 -3.4826111514121294e-03</internalNodes>
          <leafValues>
            -7.0231926441192627e-01 2.9805544018745422e-01</leafValues></_></weakClassifiers></_>
    <!-- stage 5 -->
    <_>
      <maxWeakCount>7</maxWeakCount>
      <stageThreshold>-8.7939667701721191e-01</stageThreshold>
      <weakClassifiers>
        <_>
          <internalNodes>
            0 -1 37 2.6811109855771065e-03</internalNodes>
          <leafValues>
            -7.7477478981018066e-01 5.3846156597137451e-01</leafValues></_>
        <_>
          <internalNodes>
            0 -1 45 4.5205833157524467e-04</internalNodes>
          <leafValues>
            -5.5169296264648438e-01 4.8601379990577698e-01</leafValues></_>
        <_>
          <internalNodes>
            0 -1 2 -1.3451245613396168e-02</internalNodes>
          <leafValues>
            7.8972148895263672e-01 -2.8534814715385437e-01</leafValues></_>
        <_>
          <internalNodes>
            0 -1 7 -8.0862119793891907e-02</internalNodes>
          <leafValues>
            -8.8937872648239136e-01 2.3525202274322510e-01</leafValues></_>
        <_>
          <internalNodes>
            0 -1 60 -1.4292397536337376e-02</internalNodes>
          <leafValues>
            3.1450560688972473e-01 -6.3417083024978638e-01</leafValues></_>
        <_>
          <internalNodes>
            0 -1 56 -2.8564720414578915e-03</internalNodes>
          <leafValues>
            5.8954328298568726e-01 -3.8742715120315552e-01</leafValues></_>
        <_>
          <internalNodes>
            0 -1 38 6.3515519723296165e-03</internalNodes>
          <leafValues>
            -3.1995773315429688e-01 6.0919553041458130e-01</leafValues></_></weakClassifiers></_>
    <!-- stage 6 -->
    <_>
      <maxWeakCount>7</maxWeakCount>
      <stageThreshold>-1.1010700464248657e+00</stageThreshold>
      <weakClassifiers>
        <_>
          <internalNodes>
            0 -1 29 -2.7896966785192490e-02</internalNodes>
          <leafValues>
            8.5714286565780640e-01 -7.5000000000000000e-01</leafValues></_>
        <_>
          <internalNodes>
            0 -1 24 -4.7662556171417236e-03</internalNodes>
          <leafValues>
            5.3263217210769653e-01 -4.9997079372406006e-01</leafValues></_>
        <_>
          <internalNodes>
            0 -1 15 -3.9274521172046661e-02</internalNodes>
          <leafValues>
            2.9497084021568298e-01 -7.6402300596237183e-01</leafValues></_>
        <_>
          <internalNodes>
            0 -1 46 1.3841384090483189e-02</internalNodes>
          <leafValues>
            -4.0136262774467468e-01 4.8574429750442505e-01</leafValues></_>
        <_>
          <internalNodes>
            0 -1 8 2.7943251188844442e-04</internalNodes>
          <leafValues>
            2.9715341329574585e-01 -6.5025597810745239e-01</leafValues></_>
        <_>
          <internalNodes>
            0 -1 13 3.7906819488853216e-04</internalNodes>
          <leafValues>
            -4.5140415430068970e-01 4.2810684442520142e-01</leafValues></_>
        <_>
          <internalNodes>
            0 -1 53 -8.1895338371396065e-04</internalNodes>
          <leafValues>
            5.5894869565963745e-01 -2.9808071255683899e-01</leafValues></_></weakClassifiers></_>
    <!-- stage 7 -->
    <_>
      <maxWeakCount>6</maxWeakCount>
      <stageThreshold>-1.1328450441360474e+00</stageThreshold>
      <weakClassifiers>
        <_>
          <internalNodes>
            0 -1 41 -3.6550436168909073e-02</internalNodes>
          <leafValues>
            3.5135135054588318e-01 -7.9214781522750854e-01</leafValues></_>
        <_>
          <internalNodes>
            0 -1 58 2.8402910102158785e-03</internalNodes>
          <leafValues>
            1.4358298480510712e-01 -8.5495495796203613e-01</leafValues></_>
        <_>
          <internalNodes>
            0 -1 26 3.8290966767817736e-03</internalNodes>
          <leafValues>
            1.3195832073688507e-01 -8.9377111196517944e-01</leafValues></_>
        <_>
          <internalNodes>
            0 -1 50 -7.2273233672603965e-04</internalNodes>
          <leafValues>
            5.0451397895812988e-01 -4.1603460907936096e-01</leafValues></_>
        <_>
          <internalNodes>
            0 -1 33 -1.6866260557435453e-04</internalNodes>
          <leafValues>
            3.2538312673568726e-01 -6.4660906791687012e-01</leafValues></_>
        <_>
          <internalNodes>
            0 -1 61 1.7219129949808121e-04</internalNodes>
          <leafValues>
            -3.9589989185333252e-01 4.4640514254570007e-01</leafValues></_></weakClassifiers></_>
    <!-- stage 8 -->
    <_>
      <maxWeakCount>7</maxWeakCount>
      <stageThreshold>-1.0086597204208374e+00</stageThreshold>
      <weakClassifiers>
        <_>
          <internalNodes>
            0 -1 21 5.0751462578773499e-02</internalNodes>
          <leafValues>
            -7.4235808849334717e-01 8.3333331346511841e-01</leafValues></_>
        <_>
          <internalNodes>
            0 -1 52 -3.4780688583850861e-02</internalNodes>
          <leafValues>
            -4.6848937869071960e-01 5.4216223955154419e-01</leafValues></_>
        <_>
          <internalNodes>
            0 -1 62 -2.1554604172706604e-03</internalNodes>
          <leafValues>
            -9.2463546991348267e-01 2.1742783486843109e-01</leafValues></_>
        <_>
          <internalNodes>
            0 -1 51 -2.9054731130599976e-03</internalNodes>
          <leafValues>
            6.1505126953125000e-01 -3.2537043094635010e-01</leafValues></_>
        <_>
          <internalNodes>
            0 -1 0 1.4259167946875095e-02</internalNodes>
          <leafValues>
            2.5097605586051941e-01 -9.1667866706848145e-01</leafValues></_>
        <_>
          <internalNodes>
            0 -1 1 -5.7962831109762192e-02</internalNodes>
          <leafValues>
            5.3343963623046875e-01 -4.3487760424613953e-01</leafValues></_>
        <_>
          <internalNodes>
            0 -1 20 4.1719204746186733e-03</internalNodes>
          <leafValues>
            -2.4705235660076141e-01 7.9591971635818481e-01</leafValues></_></weakClassifiers></_>
    <!-- stage 9 -->
    <_>
      <maxWeakCount>7</maxWeakCount>
      <stageThreshold>-1.2530809640884399e+00</stageThreshold>
      <weakClassifiers>
        <_>
          <internalNodes>
            0 -1 18 3.2394163310527802e-02</internalNodes>
          <leafValues>
            -7.5824177265167236e-01 1.</leafValues></_>
        <_>
          <internalNodes>
            0 -1 39 -3.6438353708945215e-04</internalNodes>
          <leafValues>
            2.3568066954612732e-01 -6.9263923168182373e-01</leafValues></_>
        <_>
          <internalNodes>
            0 -1 4 1.7829122953116894e-03</internalNodes>
          <leafValues>
            2.3504978418350220e-01 -9.3569451570510864e-01</leafValues></_>
        <_>
          <internalNodes>
            0 -1 55 -1.5851464122533798e-02</internalNodes>
          <leafValues>
            7.5095528364181519e-01 -3.2747039198875427e-01</leafValues></_>
        <_>
          <internalNodes>
            0 -1 9 -1.6558177769184113e-01</internalNodes>
          <leafValues>
            -7.6706582307815552e-01 2.7163127064704895e-01</leafValues></_>
        <_>
          <internalNodes>
            0 -1 6 -4.6218028292059898e-03</internalNodes>
          <leafValues>
            -1. 1.1176889389753342e-01</leafValues></_>
        <_>
          <internalNodes>
            0 -1 59 -7.9053291119635105e-04</internalNodes>
          <leafValues>
            -8.4363520145416260e-01 1.4924481511116028e-01</leafValues></_></weakClassifiers></_></stages>
  <features>
    <_>
      <rects>
        <_>
          0 0 12 3 -1.</_>
        <_>
          6 0 6 3 2.</_></rects>
      <tilted>0</tilted></_>
    <_>
      <rects>
        <_>
          0 2 12 12 -1.</_>
        <_>
          0 2 6 6 2.</_>
        <_>
          6 8 6 6 2.</_></rects>
      <tilted>0</tilted></_>
    <_>
      <rects>
        <_>
          0 9 6 4 -1.</_>
        <_>
          3 9 3 4 2.</_></rects>
      <tilted>0</tilted></_>
    <_>
      <rects>
        <_>
          0 11 14 4 -1.</_>
        <_>
          7 11 7 4 2.</_></rects>
      <tilted>0</tilted></_>
    <_>
      <rects>
        <_>
          0 12 2 10 -1.</_>
        <_>
          0 12 1 5 2.</_>
        <_>
          1 17 1 5 2.</_></rects>
      <tilted>0</tilted></_>
    <_>
      <rects>
        <_>
          0 13 19 8 -1.</_>
        <_>
          0 17 19 4 2.</_></rects>
      <tilted>0</tilted></_>
    <_>
      <rects>
        <_>
          0 20 5 4 -1.</_>
        <_>
          0 22 5 2 2.</_></rects>
      <tilted>0</tilted></_>
    <_>
      <rects>
        <_>
          1 0 18 1 -1.</_>
        <_>
          7 0 6 1 2.</_></rects>
      <tilted>0</tilted></_>
    <_>
      <rects>
        <_>
          1 21 2 2 -1.</_>
        <_>
          1 22 2 1 2.</_></rects>
      <tilted>0</tilted></_>
    <_>
      <rects>
        <_>
          2 8 21 2 -1.</_>
        <_>
          9 8 7 2 2.</_></rects>
      <tilted>0</tilted></_>
    <_>
      <rects>
        <_>
          3 6 6 4 -1.</_>
        <_>
          3 8 6 2 2.</_></rects>
      <tilted>0</tilted></_>
    <_>
      <rects>
        <_>
          3 6 16 12 -1.</_>
        <_>
          3 12 16 6 2.</_></rects>
      <tilted>0</tilted></_>
    <_>
      <rects>
        <_>
          4 0 20 8 -1.</_>
        <_>
          4 4 20 4 2.</_></rects>
      <tilted>0</tilted></_>
    <_>
      <rects>
        <_>
          4 1 2 12 -1.</_>
        <_>
          4 1 1 6 2.</_>
        <_>
          5 7 1 6 2.</_></rects>
      <tilted>0</tilted></_>
    <_>
      <rects>
        <_>
          4 20 13 4 -1.</_>
        <_>
          4 22 13 2 2.</_></rects>
      <tilted>0</tilted></_>
    <_>
      <rects>
        <_>
          5 5 18 1 -1.</_>
        <_>
          11 5 6 1 2.</_></rects>
      <tilted>0</tilted></_>
    <_>
      <rects>
        <_>
          5 13 7 4 -1.</_>
        <_>
          5 15 7 2 2.</_></rects>
      <tilted>0</tilted></_>
    <_>
      <rects>
        <_>
          6 3 12 2 -1.</_>
        <_>
          6 3 6 1 2.</_>
        <_>
          12 4 6 1 2.</_></rects>
      <tilted>0</tilted></_>
    <_>
      <rects>
        <_>
          6 5 4 12 -1.</_>
        <_>
          8 5 2 12 2.</_></rects>
      <tilted>0</tilted></_>
    <_>
      <rects>
        <_>
          6 7 4 7 -1.</_>
        <_>
          8 7 2 7 2.</_></rects>
      <tilted>0</tilted></_>
    <_>
      <rects>
        <_>
          6 10 2 8 -1.</_>
        <_>
          6 10 1 4 2.</_>
        <_>
          7 14 1 4 2.</_></rects>
      <tilted>0</tilted></_>
    <_>
      <rects>
        <_>
          6 11 6 8 -1.</_>
        <_>
          9 11 3 8 2.</_></rects>
      <tilted>0</tilted></_>
    <_>
      <rects>
        <_>
          6 12 6 2 -1.</_>
        <_>
          9 12 3 2 2.</_></rects>
      <tilted>0</tilted></_>
    <_>
      <rects>
        <_>
          7 4 8 10 -1.</_>
        <_>
          7 9 8 5 2.</_></rects>
      <tilted>0</tilted></_>
    <_>
      <rects>
        <_>
          7 6 5 2 -1.</_>
        <_>
          7 7 5 1 2.</_></rects>
      <tilted>0</tilted></_>
    <_>
      <rects>
        <_>
          7 17 14 4 -1.</_>
        <_>
          7 19 14 2 2.</_></rects>
      <tilted>0</tilted></_>
    <_>
      <rects>
        <_>
          8 0 12 2 -1.</_>
        <_>
          8 0 6 1 2.</_>
        <_>
          14 1 6 1 2.</_></rects>
      <tilted>0</tilted></_>
    <_>
      <rects>
        <_>
          8 9 5 14 -1.</_>
        <_>
          8 16 5 7 2.</_></rects>
      <tilted>0</tilted></_>
    <_>
      <rects>
        <_>
          8 11 6 6 -1.</_>
        <_>
          11 11 3 6 2.</_></rects>
      <tilted>0</tilted></_>
    <_>
      <rects>
        <_>
          8 14 4 5 -1.</_>
        <_>
          10 14 2 5 2.</_></rects>
      <tilted>0</tilted></_>
    <_>
      <rects>
        <_>
          8 23 16 1 -1.</_>
        <_>
          16 23 8 1 2.</_></rects>
      <tilted>0</tilted></_>
    <_>
      <rects>
        <_>
          9 1 5 6 -1.</_>
        <_>
          9 4 5 3 2.</_></rects>
      <tilted>0</tilted></_>
    <_>
      <rects>
        <_>
          11 3 6 12 -1.</_>
        <_>
          11 3 3 6 2.</_>
        <_>
          14 9 3 6 2.</_></rects>
      <tilted>0</tilted></_>
    <_>
      <rects>
        <_>
          11 8 1 2 -1.</_>
        <_>
          11 9 1 1 2.</_></rects>
      <tilted>0</tilted></_>
    <_>
      <rects>
        <_>
          11 8 6 4 -1.</_>
        <_>
          11 10 6 2 2.</_></rects>
      <tilted>0</tilted></_>
    <_>
      <rects>
        <_>
          11 9 1 2 -1.</_>
        <_>
          11 10 1 1 2.</_></rects>
      <tilted>0</tilted></_>
    <_>
      <rects>
        <_>
          11 11 1 2 -1.</_>
        <_>
          11 12 1 1 2.</_></rects>
      <tilted>0</tilted></_>
    <_>
      <rects>
        <_>
          11 16 2 3 -1.</_>
        <_>
          12 16 1 3 2.</_></rects>
      <tilted>0</tilted></_>
    <_>
      <rects>
        <_>
          11 20 12 4 -1.</_>
        <_>
          17 20 6 4 2.</_></rects>
      <tilted>0</tilted></_>
    <_>
      <rects>
        <_>
          12 6 2 2 -1.</_>
        <_>
          12 7 2 1 2.</_></rects>
      <tilted>0</tilted></_>
    <_>
      <rects>
        <_>
          12 7 1 2 -1.</_>
        <_>
          12 8 1 1 2.</_></rects>
      <tilted>0</tilted></_>
    <_>
      <rects>
        <_>
          14 0 2 14 -1.</_>
        <_>
          14 7 2 7 2.</_></rects>
      <tilted>0</tilted></_>
    <_>
      <rects>
        <_>
          14 0 10 2 -1.</_>
        <_>
          19 0 5 2 2.</_></rects>
      <tilted>0</tilted></_>
    <_>
      <rects>
        <_>
          14 5 2 14 -1.</_>
        <_>
          14 12 2 7 2.</_></rects>
      <tilted>0</tilted></_>
    <_>
      <rects>
        <_>
          14 9 1 2 -1.</_>
        <_>
          14 10 1 1 2.</_></rects>
      <tilted>0</tilted></_>
    <_>
      <rects>
        <_>
          14 12 2 2 -1.</_>
        <_>
          14 12 1 1 2.</_>
        <_>
          15 13 1 1 2.</_></rects>
      <tilted>0</tilted></_>
    <_>
      <rects>
        <_>
          14 13 3 8 -1.</_>
        <_>
          14 17 3 4 2.</_></rects>
      <tilted>0</tilted></_>
    <_>
      <rects>
        <_>
          15 4 6 14 -1.</_>
        <_>
          15 4 3 7 2.</_>
        <_>
          18 11 3 7 2.</_></rects>
      <tilted>0</tilted></_>
    <_>
      <rects>
        <_>
          15 6 2 2 -1.</_>
        <_>
          15 7 2 1 2.</_></rects>
      <tilted>0</tilted></_>
    <_>
      <rects>
        <_>
          15 7 1 2 -1.</_>
        <_>
          15 8 1 1 2.</_></rects>
      <tilted>0</tilted></_>
    <_>
      <rects>
        <_>
          15 10 1 2 -1.</_>
        <_>
          15 11 1 1 2.</_></rects>
      <tilted>0</tilted></_>
    <_>
      <rects>
        <_>
          15 11 2 10 -1.</_>
        <_>
          16 11 1 10 2.</_></rects>
      <tilted>0</tilted></_>
    <_>
      <rects>
        <_>
          16 8 2 9 -1.</_>
        <_>
          16 11 2 3 2.</_></rects>
      <tilted>0</tilted></_>
    <_>
      <rects>
        <_>
          16 10 1 2 -1.</_>
        <_>
          16 11 1 1 2.</_></rects>
      <tilted>0</tilted></_>
    <_>
      <rects>
        <_>
          17 5 4 2 -1.</_>
        <_>
          17 6 4 1 2.</_></rects>
      <tilted>0</tilted></_>
    <_>
      <rects>
        <_>
          17 6 1 10 -1.</_>
        <_>
          17 11 1 5 2.</_></rects>
      <tilted>0</tilted></_>
    <_>
      <rects>
        <_>
          17 7 2 17 -1.</_>
        <_>
          18 7 1 17 2.</_></rects>
      <tilted>0</tilted></_>
    <_>
      <rects>
        <_>
          18 8 6 6 -1.</_>
        <_>
          21 8 3 6 2.</_></rects>
      <tilted>0</tilted></_>
    <_>
      <rects>
        <_>
          18 19 4 5 -1.</_>
        <_>
          20 19 2 5 2.</_></rects>
      <tilted>0</tilted></_>
    <_>
      <rects>
        <_>
          20 3 4 2 -1.</_>
        <_>
          20 3 2 1 2.</_>
        <_>
          22 4 2 1 2.</_></rects>
      <tilted>0</tilted></_>
    <_>
      <rects>
        <_>
          20 18 3 2 -1.</_>
        <_>
          21 18 1 2 2.</_></rects>
      <tilted>0</tilted></_>
    <_>
      <rects>
        <_>
          23 5 1 4 -1.</_>
        <_>
          23 7 1 2 2.</_></rects>
      <tilted>0</tilted></_>
    <_>
      <rects>
        <_>
          23 9 1 6 -1.</_>
        <_>
          23 12 1 3 2.</_></rects>
      <tilted>0</tilted></_></features></cascade>
</opencv_storage>
