<?xml version="1.0"?>
<opencv_storage>
<stage7>
  <maxWeakCount>6</maxWeakCount>
  <stageThreshold>-1.1328450441360474e+00</stageThreshold>
  <weakClassifiers>
    <_>
      <internalNodes>
        0 -1 133867 -3.6550436168909073e-02</internalNodes>
      <leafValues>
        3.5135135054588318e-01 -7.9214781522750854e-01</leafValues></_>
    <_>
      <internalNodes>
        0 -1 155113 2.8402910102158785e-03</internalNodes>
      <leafValues>
        1.4358298480510712e-01 -8.5495495796203613e-01</leafValues></_>
    <_>
      <internalNodes>
        0 -1 90227 3.8290966767817736e-03</internalNodes>
      <leafValues>
        1.3195832073688507e-01 -8.9377111196517944e-01</leafValues></_>
    <_>
      <internalNodes>
        0 -1 142395 -7.2273233672603965e-04</internalNodes>
      <leafValues>
        5.0451397895812988e-01 -4.1603460907936096e-01</leafValues></_>
    <_>
      <internalNodes>
        0 -1 118249 -1.6866260557435453e-04</internalNodes>
      <leafValues>
        3.2538312673568726e-01 -6.4660906791687012e-01</leafValues></_>
    <_>
      <internalNodes>
        0 -1 162191 1.7219129949808121e-04</internalNodes>
      <leafValues>
        -3.9589989185333252e-01 4.4640514254570007e-01</leafValues></_></weakClassifiers></stage7>
</opencv_storage>
