<?xml version="1.0"?>
<opencv_storage>
<stage8>
  <maxWeakCount>7</maxWeakCount>
  <stageThreshold>-1.0086597204208374e+00</stageThreshold>
  <weakClassifiers>
    <_>
      <internalNodes>
        0 -1 77907 5.0751462578773499e-02</internalNodes>
      <leafValues>
        -7.4235808849334717e-01 8.3333331346511841e-01</leafValues></_>
    <_>
      <internalNodes>
        0 -1 146462 -3.4780688583850861e-02</internalNodes>
      <leafValues>
        -4.6848937869071960e-01 5.4216223955154419e-01</leafValues></_>
    <_>
      <internalNodes>
        0 -1 162249 -2.1554604172706604e-03</internalNodes>
      <leafValues>
        -9.2463546991348267e-01 2.1742783486843109e-01</leafValues></_>
    <_>
      <internalNodes>
        0 -1 142653 -2.9054731130599976e-03</internalNodes>
      <leafValues>
        6.1505126953125000e-01 -3.2537043094635010e-01</leafValues></_>
    <_>
      <internalNodes>
        0 -1 410 1.4259167946875095e-02</internalNodes>
      <leafValues>
        2.5097605586051941e-01 -9.1667866706848145e-01</leafValues></_>
    <_>
      <internalNodes>
        0 -1 2522 -5.7962831109762192e-02</internalNodes>
      <leafValues>
        5.3343963623046875e-01 -4.3487760424613953e-01</leafValues></_>
    <_>
      <internalNodes>
        0 -1 77341 4.1719204746186733e-03</internalNodes>
      <leafValues>
        -2.4705235660076141e-01 7.9591971635818481e-01</leafValues></_></weakClassifiers></stage8>
</opencv_storage>
