<?xml version="1.0"?>
<opencv_storage>
<stage4>
  <maxWeakCount>7</maxWeakCount>
  <stageThreshold>-1.1283687353134155e+00</stageThreshold>
  <weakClassifiers>
    <_>
      <internalNodes>
        0 -1 135889 -5.8375805616378784e-02</internalNodes>
      <leafValues>
        7.5000000000000000e-01 -7.5330394506454468e-01</leafValues></_>
    <_>
      <internalNodes>
        0 -1 141388 -4.2437319643795490e-04</internalNodes>
      <leafValues>
        2.6927316188812256e-01 -6.7377036809921265e-01</leafValues></_>
    <_>
      <internalNodes>
        0 -1 124675 -7.9085002653300762e-05</internalNodes>
      <leafValues>
        3.1652680039405823e-01 -6.0811120271682739e-01</leafValues></_>
    <_>
      <internalNodes>
        0 -1 43618 -1.1134953796863556e-01</internalNodes>
      <leafValues>
        4.9470457434654236e-01 -4.1855999827384949e-01</leafValues></_>
    <_>
      <internalNodes>
        0 -1 149802 -1.4057557564228773e-03</internalNodes>
      <leafValues>
        6.0438281297683716e-01 -3.9070290327072144e-01</leafValues></_>
    <_>
      <internalNodes>
        0 -1 73414 -1.1355967726558447e-03</internalNodes>
      <leafValues>
        5.4464364051818848e-01 -3.6254721879959106e-01</leafValues></_>
    <_>
      <internalNodes>
        0 -1 134056 -3.4826111514121294e-03</internalNodes>
      <leafValues>
        -7.0231926441192627e-01 2.9805544018745422e-01</leafValues></_></weakClassifiers></stage4>
</opencv_storage>
