<?xml version="1.0"?>
<opencv_storage>
<stage3>
  <maxWeakCount>5</maxWeakCount>
  <stageThreshold>-1.0066841840744019e+00</stageThreshold>
  <weakClassifiers>
    <_>
      <internalNodes>
        0 -1 43293 -1.6522159799933434e-02</internalNodes>
      <leafValues>
        5.2631579339504242e-02 -8.0629539489746094e-01</leafValues></_>
    <_>
      <internalNodes>
        0 -1 95414 3.7821866571903229e-02</internalNodes>
      <leafValues>
        -6.1975985765457153e-01 2.2503092885017395e-01</leafValues></_>
    <_>
      <internalNodes>
        0 -1 50366 6.7447096109390259e-02</internalNodes>
      <leafValues>
        -3.7612983584403992e-01 7.2505700588226318e-01</leafValues></_>
    <_>
      <internalNodes>
        0 -1 98651 4.2208922095596790e-03</internalNodes>
      <leafValues>
        2.8099933266639709e-01 -8.6129438877105713e-01</leafValues></_>
    <_>
      <internalNodes>
        0 -1 96153 -2.1933864802122116e-02</internalNodes>
      <leafValues>
        7.2180467844009399e-01 -2.8918236494064331e-01</leafValues></_></weakClassifiers></stage3>
</opencv_storage>
