<?xml version="1.0"?>
<opencv_storage>
<stage11>
  <maxWeakCount>7</maxWeakCount>
  <stageThreshold>-1.0222960710525513e+00</stageThreshold>
  <weakClassifiers>
    <_>
      <internalNodes>
        0 -1 141966 -3.4040510654449463e-02</internalNodes>
      <leafValues>
        5.7894736528396606e-01 -7.5609755516052246e-01</leafValues></_>
    <_>
      <internalNodes>
        0 -1 123890 -4.2893569916486740e-03</internalNodes>
      <leafValues>
        4.1934409737586975e-01 -4.8168161511421204e-01</leafValues></_>
    <_>
      <internalNodes>
        0 -1 141219 -5.6891240179538727e-02</internalNodes>
      <leafValues>
        2.0364823937416077e-01 -9.0262615680694580e-01</leafValues></_>
    <_>
      <internalNodes>
        0 -1 162231 6.9193099625408649e-03</internalNodes>
      <leafValues>
        2.1439473330974579e-01 -6.5669524669647217e-01</leafValues></_>
    <_>
      <internalNodes>
        0 -1 2566 1.9854609854519367e-03</internalNodes>
      <leafValues>
        -3.5424229502677917e-01 4.6994793415069580e-01</leafValues></_>
    <_>
      <internalNodes>
        0 -1 241 -1.0867230594158173e-03</internalNodes>
      <leafValues>
        -7.9848331212997437e-01 2.4407112598419189e-01</leafValues></_>
    <_>
      <internalNodes>
        0 -1 24735 -1.6116647748276591e-04</internalNodes>
      <leafValues>
        -8.6516535282135010e-01 1.2597557902336121e-01</leafValues></_></weakClassifiers></stage11>
</opencv_storage>
