<?xml version="1.0"?>
<opencv_storage>
<stage10>
  <maxWeakCount>9</maxWeakCount>
  <stageThreshold>-1.3339631557464600e+00</stageThreshold>
  <weakClassifiers>
    <_>
      <internalNodes>
        0 -1 135829 2.0447857677936554e-02</internalNodes>
      <leafValues>
        -7.4672490358352661e-01 1.</leafValues></_>
    <_>
      <internalNodes>
        0 -1 132314 -3.3224081562366337e-05</internalNodes>
      <leafValues>
        3.6723631620407104e-01 -4.9782073497772217e-01</leafValues></_>
    <_>
      <internalNodes>
        0 -1 51809 -2.9547740705311298e-03</internalNodes>
      <leafValues>
        -5.6687885522842407e-01 2.8653389215469360e-01</leafValues></_>
    <_>
      <internalNodes>
        0 -1 153549 -9.3994502094574273e-05</internalNodes>
      <leafValues>
        4.2979526519775391e-01 -3.7058946490287781e-01</leafValues></_>
    <_>
      <internalNodes>
        0 -1 95696 -1.2174168601632118e-02</internalNodes>
      <leafValues>
        6.2678092718124390e-01 -2.7359104156494141e-01</leafValues></_>
    <_>
      <internalNodes>
        0 -1 67691 6.8553804885596037e-04</internalNodes>
      <leafValues>
        -2.8196829557418823e-01 5.5017358064651489e-01</leafValues></_>
    <_>
      <internalNodes>
        0 -1 119243 -4.1538951918482780e-03</internalNodes>
      <leafValues>
        4.9533030390739441e-01 -3.0045399069786072e-01</leafValues></_>
    <_>
      <internalNodes>
        0 -1 152767 1.2521594762802124e-02</internalNodes>
      <leafValues>
        -3.4395486116409302e-01 6.5769463777542114e-01</leafValues></_>
    <_>
      <internalNodes>
        0 -1 151363 1.5607855748385191e-03</internalNodes>
      <leafValues>
        -5.6110984086990356e-01 3.2954913377761841e-01</leafValues></_></weakClassifiers></stage10>
</opencv_storage>
