<?xml version="1.0"?>
<opencv_storage>
<stage6>
  <maxWeakCount>7</maxWeakCount>
  <stageThreshold>-1.1010700464248657e+00</stageThreshold>
  <weakClassifiers>
    <_>
      <internalNodes>
        0 -1 97149 -2.7896966785192490e-02</internalNodes>
      <leafValues>
        8.5714286565780640e-01 -7.5000000000000000e-01</leafValues></_>
    <_>
      <internalNodes>
        0 -1 84950 -4.7662556171417236e-03</internalNodes>
      <leafValues>
        5.3263217210769653e-01 -4.9997079372406006e-01</leafValues></_>
    <_>
      <internalNodes>
        0 -1 64575 -3.9274521172046661e-02</internalNodes>
      <leafValues>
        2.9497084021568298e-01 -7.6402300596237183e-01</leafValues></_>
    <_>
      <internalNodes>
        0 -1 138164 1.3841384090483189e-02</internalNodes>
      <leafValues>
        -4.0136262774467468e-01 4.8574429750442505e-01</leafValues></_>
    <_>
      <internalNodes>
        0 -1 25615 2.7943251188844442e-04</internalNodes>
      <leafValues>
        2.9715341329574585e-01 -6.5025597810745239e-01</leafValues></_>
    <_>
      <internalNodes>
        0 -1 50409 3.7906819488853216e-04</internalNodes>
      <leafValues>
        -4.5140415430068970e-01 4.2810684442520142e-01</leafValues></_>
    <_>
      <internalNodes>
        0 -1 146843 -8.1895338371396065e-04</internalNodes>
      <leafValues>
        5.5894869565963745e-01 -2.9808071255683899e-01</leafValues></_></weakClassifiers></stage6>
</opencv_storage>
