<?xml version="1.0"?>
<opencv_storage>
<stage2>
  <maxWeakCount>7</maxWeakCount>
  <stageThreshold>-1.4794838428497314e+00</stageThreshold>
  <weakClassifiers>
    <_>
      <internalNodes>
        0 -1 116201 4.6055644750595093e-02</internalNodes>
      <leafValues>
        -7.7927929162979126e-01 6.1538463830947876e-01</leafValues></_>
    <_>
      <internalNodes>
        0 -1 140864 4.2997620999813080e-02</internalNodes>
      <leafValues>
        -5.3824186325073242e-01 7.0760804414749146e-01</leafValues></_>
    <_>
      <internalNodes>
        0 -1 118626 -7.1017217123880982e-05</internalNodes>
      <leafValues>
        4.0052172541618347e-01 -6.8906897306442261e-01</leafValues></_>
    <_>
      <internalNodes>
        0 -1 153862 3.6165891215205193e-03</internalNodes>
      <leafValues>
        -6.0803925991058350e-01 4.3165829777717590e-01</leafValues></_>
    <_>
      <internalNodes>
        0 -1 119299 -8.0822646850720048e-05</internalNodes>
      <leafValues>
        4.0010413527488708e-01 -5.7846373319625854e-01</leafValues></_>
    <_>
      <internalNodes>
        0 -1 78307 6.8585216067731380e-03</internalNodes>
      <leafValues>
        -3.0290576815605164e-01 8.0514055490493774e-01</leafValues></_>
    <_>
      <internalNodes>
        0 -1 75795 -1.7324440181255341e-02</internalNodes>
      <leafValues>
        8.8398116827011108e-01 -2.6903247833251953e-01</leafValues></_></weakClassifiers></stage2>
</opencv_storage>
