<?xml version="1.0"?>
<opencv_storage>
<stage9>
  <maxWeakCount>8</maxWeakCount>
  <stageThreshold>-1.2629858255386353e+00</stageThreshold>
  <weakClassifiers>
    <_>
      <internalNodes>
        0 -1 96825 -2.4037035182118416e-03</internalNodes>
      <leafValues>
        -1.1111111193895340e-01 -8.1172293424606323e-01</leafValues></_>
    <_>
      <internalNodes>
        0 -1 158878 4.0003651520237327e-04</internalNodes>
      <leafValues>
        -6.9077235460281372e-01 7.7003031969070435e-02</leafValues></_>
    <_>
      <internalNodes>
        0 -1 64585 -9.5482721924781799e-02</internalNodes>
      <leafValues>
        1.4776910841464996e-01 -9.1213297843933105e-01</leafValues></_>
    <_>
      <internalNodes>
        0 -1 13722 1.1203123256564140e-02</internalNodes>
      <leafValues>
        1.2622807919979095e-01 -9.2342495918273926e-01</leafValues></_>
    <_>
      <internalNodes>
        0 -1 50696 -1.0748782660812140e-03</internalNodes>
      <leafValues>
        3.7045088410377502e-01 -4.4044804573059082e-01</leafValues></_>
    <_>
      <internalNodes>
        0 -1 149751 -1.7592202872037888e-02</internalNodes>
      <leafValues>
        7.3188781738281250e-01 -1.8751268088817596e-01</leafValues></_>
    <_>
      <internalNodes>
        0 -1 21569 -1.0575547348707914e-03</internalNodes>
      <leafValues>
        -5.7875227928161621e-01 2.6342466473579407e-01</leafValues></_>
    <_>
      <internalNodes>
        0 -1 46185 1.5285218134522438e-02</internalNodes>
      <leafValues>
        -1.8872389197349548e-01 7.8159397840499878e-01</leafValues></_></weakClassifiers></stage9>
</opencv_storage>
