<?xml version="1.0"?>
<opencv_storage>
<stage4>
  <maxWeakCount>7</maxWeakCount>
  <stageThreshold>-9.5244771242141724e-01</stageThreshold>
  <weakClassifiers>
    <_>
      <internalNodes>
        0 -1 131232 -6.5184193663299084e-03</internalNodes>
      <leafValues>
        7.5999999046325684e-01 -6.0816323757171631e-01</leafValues></_>
    <_>
      <internalNodes>
        0 -1 124326 -4.0922965854406357e-03</internalNodes>
      <leafValues>
        4.8127034306526184e-01 -5.4065191745758057e-01</leafValues></_>
    <_>
      <internalNodes>
        0 -1 137853 -2.1989183733239770e-04</internalNodes>
      <leafValues>
        6.6725939512252808e-01 -3.6789914965629578e-01</leafValues></_>
    <_>
      <internalNodes>
        0 -1 148625 -6.5269451588392258e-03</internalNodes>
      <leafValues>
        8.5941344499588013e-01 -2.3681348562240601e-01</leafValues></_>
    <_>
      <internalNodes>
        0 -1 87201 4.3880697339773178e-03</internalNodes>
      <leafValues>
        -2.6849123835563660e-01 7.7182364463806152e-01</leafValues></_>
    <_>
      <internalNodes>
        0 -1 65693 -2.9468646273016930e-02</internalNodes>
      <leafValues>
        8.3583104610443115e-01 -2.9444640874862671e-01</leafValues></_>
    <_>
      <internalNodes>
        0 -1 160686 1.6859740018844604e-02</internalNodes>
      <leafValues>
        3.4209546446800232e-01 -8.0346047878265381e-01</leafValues></_></weakClassifiers></stage4>
</opencv_storage>
