<?xml version="1.0"?>
<opencv_storage>
<stage11>
  <maxWeakCount>5</maxWeakCount>
  <stageThreshold>-8.8639193773269653e-01</stageThreshold>
  <weakClassifiers>
    <_>
      <internalNodes>
        0 -1 95227 3.8041705265641212e-03</internalNodes>
      <leafValues>
        -6.5106385946273804e-01 6.5714287757873535e-01</leafValues></_>
    <_>
      <internalNodes>
        0 -1 70009 5.3687469335272908e-04</internalNodes>
      <leafValues>
        -7.1912252902984619e-01 4.7178557515144348e-01</leafValues></_>
    <_>
      <internalNodes>
        0 -1 158113 -1.5831261407583952e-04</internalNodes>
      <leafValues>
        -7.3486638069152832e-01 3.8988888263702393e-01</leafValues></_>
    <_>
      <internalNodes>
        0 -1 117391 -2.0194977521896362e-02</internalNodes>
      <leafValues>
        4.6650460362434387e-01 -5.7178932428359985e-01</leafValues></_>
    <_>
      <internalNodes>
        0 -1 32660 -5.8221323415637016e-03</internalNodes>
      <leafValues>
        6.7698425054550171e-01 -3.7259906530380249e-01</leafValues></_></weakClassifiers></stage11>
</opencv_storage>
