<?xml version="1.0"?>
<opencv_storage>
<stage4>
  <maxWeakCount>6</maxWeakCount>
  <stageThreshold>-4.0630963444709778e-01</stageThreshold>
  <weakClassifiers>
    <_>
      <internalNodes>
        0 -1 24694 3.0982088297605515e-02</internalNodes>
      <leafValues>
        -2.8205129504203796e-01 7.2677594423294067e-01</leafValues></_>
    <_>
      <internalNodes>
        0 -1 126349 -3.3584350603632629e-05</internalNodes>
      <leafValues>
        4.8227345943450928e-01 -4.3963173031806946e-01</leafValues></_>
    <_>
      <internalNodes>
        0 -1 60956 7.8695580363273621e-02</internalNodes>
      <leafValues>
        -2.6786008477210999e-01 8.2161676883697510e-01</leafValues></_>
    <_>
      <internalNodes>
        0 -1 30048 -9.5372855663299561e-02</internalNodes>
      <leafValues>
        8.9558517932891846e-01 -3.1945326924324036e-01</leafValues></_>
    <_>
      <internalNodes>
        0 -1 39506 -8.8410591706633568e-04</internalNodes>
      <leafValues>
        -5.3978246450424194e-01 4.4567972421646118e-01</leafValues></_>
    <_>
      <internalNodes>
        0 -1 146396 -3.4337419492658228e-05</internalNodes>
      <leafValues>
        5.2056401968002319e-01 -4.1945704817771912e-01</leafValues></_></weakClassifiers></stage4>
</opencv_storage>
