<?xml version="1.0"?>
<opencv_storage>
<stage2>
  <maxWeakCount>7</maxWeakCount>
  <stageThreshold>-7.1173256635665894e-01</stageThreshold>
  <weakClassifiers>
    <_>
      <internalNodes>
        0 -1 112840 -7.7519391197711229e-05</internalNodes>
      <leafValues>
        7.1276593208312988e-01 -3.0357143282890320e-01</leafValues></_>
    <_>
      <internalNodes>
        0 -1 126063 -7.7932229032739997e-05</internalNodes>
      <leafValues>
        5.7746231555938721e-01 -4.5156309008598328e-01</leafValues></_>
    <_>
      <internalNodes>
        0 -1 12170 4.3910499662160873e-03</internalNodes>
      <leafValues>
        -6.3693523406982422e-01 4.5877686142921448e-01</leafValues></_>
    <_>
      <internalNodes>
        0 -1 40616 -1.0301540791988373e-01</internalNodes>
      <leafValues>
        -2.7248367667198181e-01 8.5129183530807495e-01</leafValues></_>
    <_>
      <internalNodes>
        0 -1 15699 -6.3330382108688354e-02</internalNodes>
      <leafValues>
        8.8665682077407837e-01 -2.3052200675010681e-01</leafValues></_>
    <_>
      <internalNodes>
        0 -1 78508 5.2352070808410645e-02</internalNodes>
      <leafValues>
        -2.9054978489875793e-01 7.8289783000946045e-01</leafValues></_>
    <_>
      <internalNodes>
        0 -1 25606 2.7249695267528296e-04</internalNodes>
      <leafValues>
        3.7818053364753723e-01 -6.6706085205078125e-01</leafValues></_></weakClassifiers></stage2>
</opencv_storage>
