<?xml version="1.0"?>
<opencv_storage>
<stage8>
  <maxWeakCount>9</maxWeakCount>
  <stageThreshold>-8.5211288928985596e-01</stageThreshold>
  <weakClassifiers>
    <_>
      <internalNodes>
        0 -1 161181 -2.2542756050825119e-04</internalNodes>
      <leafValues>
        -3.9393940567970276e-01 5.3846156597137451e-01</leafValues></_>
    <_>
      <internalNodes>
        0 -1 5000 -2.1754852496087551e-03</internalNodes>
      <leafValues>
        -6.4970541000366211e-01 2.8426837921142578e-01</leafValues></_>
    <_>
      <internalNodes>
        0 -1 61822 9.9936723709106445e-02</internalNodes>
      <leafValues>
        -2.0776639878749847e-01 8.6138993501663208e-01</leafValues></_>
    <_>
      <internalNodes>
        0 -1 69027 1.2893196195363998e-02</internalNodes>
      <leafValues>
        -3.4014180302619934e-01 4.9973309040069580e-01</leafValues></_>
    <_>
      <internalNodes>
        0 -1 146926 -6.4270547591149807e-03</internalNodes>
      <leafValues>
        6.4468175172805786e-01 -2.7420777082443237e-01</leafValues></_>
    <_>
      <internalNodes>
        0 -1 67737 -5.2634198218584061e-03</internalNodes>
      <leafValues>
        6.7483347654342651e-01 -2.3251447081565857e-01</leafValues></_>
    <_>
      <internalNodes>
        0 -1 1143 1.1951427441090345e-03</internalNodes>
      <leafValues>
        2.9678854346275330e-01 -5.7824265956878662e-01</leafValues></_>
    <_>
      <internalNodes>
        0 -1 11891 1.3941517099738121e-03</internalNodes>
      <leafValues>
        2.7701577544212341e-01 -6.2399703264236450e-01</leafValues></_>
    <_>
      <internalNodes>
        0 -1 67223 2.8848534566350281e-04</internalNodes>
      <leafValues>
        -4.2975926399230957e-01 4.9434331059455872e-01</leafValues></_></weakClassifiers></stage8>
</opencv_storage>
