<?xml version="1.0"?>
<opencv_storage>
<stage10>
  <maxWeakCount>6</maxWeakCount>
  <stageThreshold>-7.9052072763442993e-01</stageThreshold>
  <weakClassifiers>
    <_>
      <internalNodes>
        0 -1 88535 1.0912932921200991e-03</internalNodes>
      <leafValues>
        -6.0323888063430786e-01 8.2608693838119507e-01</leafValues></_>
    <_>
      <internalNodes>
        0 -1 85795 -4.6708956360816956e-03</internalNodes>
      <leafValues>
        7.3969811201095581e-01 -3.3909279108047485e-01</leafValues></_>
    <_>
      <internalNodes>
        0 -1 139236 -3.2016928889788687e-04</internalNodes>
      <leafValues>
        -9.4411772489547729e-01 2.8367593884468079e-01</leafValues></_>
    <_>
      <internalNodes>
        0 -1 105082 -8.1228656927123666e-04</internalNodes>
      <leafValues>
        7.0937871932983398e-01 -2.8797709941864014e-01</leafValues></_>
    <_>
      <internalNodes>
        0 -1 25404 6.1803171411156654e-03</internalNodes>
      <leafValues>
        -3.7586829066276550e-01 5.1484495401382446e-01</leafValues></_>
    <_>
      <internalNodes>
        0 -1 90598 -8.7375957518815994e-03</internalNodes>
      <leafValues>
        9.1614454984664917e-01 -2.0973011851310730e-01</leafValues></_></weakClassifiers></stage10>
</opencv_storage>
