<?xml version="1.0"?>
<opencv_storage>
<stage5>
  <maxWeakCount>7</maxWeakCount>
  <stageThreshold>-2.8914299607276917e-01</stageThreshold>
  <weakClassifiers>
    <_>
      <internalNodes>
        0 -1 113525 1.3293148018419743e-02</internalNodes>
      <leafValues>
        -2.2772277891635895e-01 6.1809045076370239e-01</leafValues></_>
    <_>
      <internalNodes>
        0 -1 124450 -6.8920403718948364e-03</internalNodes>
      <leafValues>
        5.9518170356750488e-01 -3.0090352892875671e-01</leafValues></_>
    <_>
      <internalNodes>
        0 -1 104743 -7.0314854383468628e-05</internalNodes>
      <leafValues>
        4.2742085456848145e-01 -3.8288888335227966e-01</leafValues></_>
    <_>
      <internalNodes>
        0 -1 8324 -3.9889559149742126e-02</internalNodes>
      <leafValues>
        5.5338490009307861e-01 -3.1174251437187195e-01</leafValues></_>
    <_>
      <internalNodes>
        0 -1 114658 -3.6042742431163788e-04</internalNodes>
      <leafValues>
        -5.8858317136764526e-01 2.8532224893569946e-01</leafValues></_>
    <_>
      <internalNodes>
        0 -1 12243 -4.4012523721903563e-04</internalNodes>
      <leafValues>
        -7.3085868358612061e-01 2.4138016998767853e-01</leafValues></_>
    <_>
      <internalNodes>
        0 -1 51483 5.8999396860599518e-02</internalNodes>
      <leafValues>
        -2.6769372820854187e-01 7.9064112901687622e-01</leafValues></_></weakClassifiers></stage5>
</opencv_storage>
